{"type":"LSTM","options":{"inputSize":10,"inputRange":10,"hiddenLayers":[20,20],"outputSize":10,"decayRate":0.999,"smoothEps":1e-8,"regc":0.000001,"clipval":5,"maxPredictionLength":100,"dataFormatter":{"indexTable":{"E":0,"R":1,"H":2,"T":3," ":4,"O":5,"L":6,"stop-input":7,"start-output":8,"unrecognized":9},"characterTable":{"0":"E","1":"R","2":"H","3":"T","4":" ","5":"O","6":"L","7":null,"8":null,"9":null},"values":["EREHT","EREHT OLLEH","HELLO","HELLO THERE","OLLEH","THERE"],"characters":["E","R","H","T"," ","O","L","stop-input","start-output","unrecognized"],"specialIndexes":[7,8,9]}},"input":{"rows":11,"columns":10,"weights":{"0":-1.026531457901001,"1":0.8211449980735779,"2":0.8219691514968872,"3":-0.027302585542201996,"4":1.9160058498382568,"5":-0.26642081141471863,"6":-0.7970705032348633,"7":0.9869529008865356,"8":-1.091797947883606,"9":-0.3739810287952423,"10":1.0854010581970215,"11":1.1111887693405151,"12":0.9373373985290527,"13":-0.49277636408805847,"14":0.7308787703514099,"15":2.8940436840057373,"16":0.5506870746612549,"17":1.9478946924209595,"18":-1.8601524829864502,"19":-0.1455594152212143,"20":-0.9619693756103516,"21":-1.2171629667282104,"22":-0.9226331114768982,"23":0.713559091091156,"24":3.689056634902954,"25":1.0230485200881958,"26":-3.196441173553467,"27":1.1386396884918213,"28":-0.44642817974090576,"29":-0.2231939136981964,"30":-0.9531843662261963,"31":1.3634591102600098,"32":0.2392261028289795,"33":1.1875730752944946,"34":0.6517645716667175,"35":-0.20778444409370422,"36":-1.4390400648117065,"37":0.11305665969848633,"38":0.5153365731239319,"39":0.7102262377738953,"40":5.645895957946777,"41":-1.7976264953613281,"42":2.872950792312622,"43":-6.238186359405518,"44":-6.127242088317871,"45":0.7899120450019836,"46":-1.1628228425979614,"47":-0.5032106637954712,"48":-1.56097412109375,"49":5.848503112792969,"50":-2.197035551071167,"51":2.093550443649292,"52":-1.7201133966445923,"53":3.1717286109924316,"54":2.399304151535034,"55":-0.6455355882644653,"56":-0.9254717826843262,"57":-0.41619279980659485,"58":2.345977306365967,"59":0.21976421773433685,"60":3.088388204574585,"61":0.643419086933136,"62":2.3835959434509277,"63":-1.8453574180603027,"64":-0.9839237332344055,"65":-0.5210331082344055,"66":-1.8521348237991333,"67":-0.7752826809883118,"68":-2.1047580242156982,"69":1.9228386878967285,"70":-0.8886243104934692,"71":0.5522360801696777,"72":-0.4106275141239166,"73":0.12122314423322678,"74":-1.6245145797729492,"75":-0.970780611038208,"76":-1.6222299337387085,"77":-1.5449949502944946,"78":0.4485286772251129,"79":-0.200352743268013,"80":-1.4276776313781738,"81":-0.26695364713668823,"82":-1.5418181419372559,"83":1.7722090482711792,"84":3.4660849571228027,"85":0.03298797458410263,"86":1.8717247247695923,"87":0.5289189219474792,"88":1.3984700441360474,"89":-1.3118034601211548,"90":-0.9777470231056213,"91":-0.394697904586792,"92":-1.4325010776519775,"93":1.6755255460739136,"94":0.09033430367708206,"95":-1.1885565519332886,"96":1.292431116104126,"97":0.1511373370885849,"98":1.301998496055603,"99":-1.444772481918335,"100":-0.049832895398139954,"101":0.005554331466555595,"102":0.005949425045400858,"103":0.06519854813814163,"104":0.024837547913193703,"105":0.00961403176188469,"106":0.0566071979701519,"107":-0.05760611593723297,"108":-0.06132940202951431,"109":0.001053843297995627}},"hiddenLayers":[{"inputMatrix":{"rows":20,"columns":10,"weights":{"0":0.47246089577674866,"1":1.1523921489715576,"2":1.2504085302352905,"3":-0.7618836164474487,"4":-0.06954483687877655,"5":0.9198977947235107,"6":0.8462400436401367,"7":-0.9570984244346619,"8":-0.9158186316490173,"9":1.4295655488967896,"10":-1.011151909828186,"11":-1.086042046546936,"12":-1.6897656917572021,"13":0.9410820603370667,"14":0.7827972173690796,"15":-1.2070966958999634,"16":-0.6519200205802917,"17":-0.6633754968643188,"18":1.3060203790664673,"19":-0.938841700553894,"20":-1.0129300355911255,"21":1.755124568939209,"22":0.02717478759586811,"23":2.932682514190674,"24":2.8447225093841553,"25":0.5020172595977783,"26":-0.014586091972887516,"27":1.3725907802581787,"28":-1.0249673128128052,"29":-0.9210110306739807,"30":0.24006637930870056,"31":-1.4286046028137207,"32":2.337345600128174,"33":-0.5404934883117676,"34":-1.3680884838104248,"35":-0.07869268208742142,"36":0.7469415068626404,"37":-0.6573282480239868,"38":-0.7343310713768005,"39":1.765694260597229,"40":-0.15834055840969086,"41":-0.6469621658325195,"42":-0.3036710023880005,"43":-0.14768792688846588,"44":0.1000339537858963,"45":-0.8632238507270813,"46":0.3374585509300232,"47":-0.07202786952257156,"48":0.5739867687225342,"49":-0.7963249087333679,"50":1.218201756477356,"51":0.9475181102752686,"52":1.0643279552459717,"53":-2.49676775932312,"54":-0.898526132106781,"55":-0.3343952000141144,"56":0.06216204911470413,"57":0.25053077936172485,"58":-1.0404785871505737,"59":0.5486555695533752,"60":1.6356405019760132,"61":0.09744168072938919,"62":1.4396544694900513,"63":-1.0691909790039062,"64":-0.32008257508277893,"65":1.7291874885559082,"66":-0.6417293548583984,"67":1.014994502067566,"68":-1.5789752006530762,"69":1.1169365644454956,"70":-0.7461276054382324,"71":-0.3283805549144745,"72":-0.639447033405304,"73":0.9904090166091919,"74":-0.34849420189857483,"75":-2.6429951190948486,"76":0.9868162870407104,"77":-0.6322987079620361,"78":1.1625663042068481,"79":-0.9747164249420166,"80":0.32434776425361633,"81":-0.623280942440033,"82":0.24974516034126282,"83":-0.9860422611236572,"84":-1.5860874652862549,"85":-1.720339059829712,"86":-1.3361561298370361,"87":-0.891964316368103,"88":0.26135164499282837,"89":0.27087855339050293,"90":1.2275686264038086,"91":1.1137113571166992,"92":1.5878397226333618,"93":1.45613431930542,"94":-1.310987114906311,"95":0.9449966549873352,"96":-0.17489685118198395,"97":0.9875694513320923,"98":-1.899388313293457,"99":1.266721487045288,"100":0.5495084524154663,"101":0.3559553623199463,"102":-1.0958369970321655,"103":-1.1067683696746826,"104":1.0559732913970947,"105":1.4346176385879517,"106":1.684568166732788,"107":2.2538297176361084,"108":-0.08164261281490326,"109":-1.299209475517273,"110":-0.07318491488695145,"111":-0.3368089199066162,"112":0.1280495971441269,"113":0.48670628666877747,"114":-0.3430662155151367,"115":1.2812411785125732,"116":1.273841381072998,"117":1.1294512748718262,"118":-0.2681366503238678,"119":-0.6906819939613342,"120":-0.5126376748085022,"121":-1.1971440315246582,"122":-0.9204332232475281,"123":0.7520160675048828,"124":-0.11570709943771362,"125":-2.200462818145752,"126":0.2130202203989029,"127":-2.0146782398223877,"128":1.3458027839660645,"129":0.2815185785293579,"130":-1.7235866785049438,"131":-0.12605799734592438,"132":-1.6685686111450195,"133":0.949944257736206,"134":1.7203707695007324,"135":0.16769570112228394,"136":1.7601089477539062,"137":-0.7339518666267395,"138":0.7201588749885559,"139":-1.7045855522155762,"140":-1.8396923542022705,"141":1.0510419607162476,"142":-1.1462516784667969,"143":2.8663740158081055,"144":1.3825321197509766,"145":0.2493736296892166,"146":0.01419398095458746,"147":-0.8000388741493225,"148":0.5372813940048218,"149":0.6871971487998962,"150":-0.5241767168045044,"151":-0.6308051347732544,"152":-1.0909786224365234,"153":0.612831711769104,"154":1.3197424411773682,"155":0.8518638014793396,"156":1.310949683189392,"157":0.9914926290512085,"158":0.7681864500045776,"159":-1.035554051399231,"160":-1.128039002418518,"161":-0.3023400902748108,"162":-0.6726278066635132,"163":1.9455143213272095,"164":-0.10679721087217331,"165":-1.1485435962677002,"166":0.11847688257694244,"167":-1.2296332120895386,"168":1.462674856185913,"169":0.5864545702934265,"170":-0.6042402386665344,"171":0.908078670501709,"172":-0.49658188223838806,"173":1.6712883710861206,"174":1.1657272577285767,"175":0.46837127208709717,"176":-0.6979860663414001,"177":1.1786394119262695,"178":0.23252788186073303,"179":-0.26826682686805725,"180":-2.0980827808380127,"181":-0.805400550365448,"182":0.02980482392013073,"183":1.89915132522583,"184":0.15989692509174347,"185":0.21578703820705414,"186":-0.4282951354980469,"187":-0.14007751643657684,"188":1.2891185283660889,"189":2.178250789642334,"190":1.156176209449768,"191":-1.3729875087738037,"192":-0.4277094900608063,"193":-1.4671907424926758,"194":0.8671385049819946,"195":2.58296275138855,"196":1.259186029434204,"197":1.7128005027770996,"198":0.11667225509881973,"199":-0.43344196677207947}},"inputHidden":{"rows":20,"columns":20,"weights":{"0":1.6087875366210938,"1":0.8730477094650269,"2":0.899440586566925,"3":0.6130496859550476,"4":0.042749468237161636,"5":1.301953673362732,"6":-0.5212969183921814,"7":0.5139739513397217,"8":-1.434755563735962,"9":-0.39447087049484253,"10":-0.44300535321235657,"11":-0.6039060354232788,"12":-0.24096159636974335,"13":-1.3006503582000732,"14":1.6577765941619873,"15":-0.4450659453868866,"16":-0.4322441518306732,"17":1.0625698566436768,"18":1.0771452188491821,"19":-1.0147536993026733,"20":-0.242044597864151,"21":-0.8420255184173584,"22":-1.990318775177002,"23":1.0655996799468994,"24":-1.3966981172561646,"25":-0.5704856514930725,"26":0.7371376156806946,"27":-0.7600423693656921,"28":0.45933517813682556,"29":0.4761280417442322,"30":-0.18574665486812592,"31":0.4008456766605377,"32":0.6064057350158691,"33":0.1307549625635147,"34":-0.6911383867263794,"35":1.8749295473098755,"36":0.2680775225162506,"37":-1.5081409215927124,"38":-2.021754503250122,"39":0.5924937129020691,"40":-1.2598564624786377,"41":-0.31466391682624817,"42":0.11997929215431213,"43":0.7173299789428711,"44":-1.350479006767273,"45":0.3568040132522583,"46":0.6548283100128174,"47":-0.0018033641390502453,"48":0.17554403841495514,"49":-0.84554123878479,"50":-0.4631708264350891,"51":-0.5293357968330383,"52":0.30510789155960083,"53":0.6164856553077698,"54":-0.08455178141593933,"55":0.1550501137971878,"56":-0.3965020179748535,"57":-1.3644940853118896,"58":0.04718994349241257,"59":0.5885636210441589,"60":1.240433692932129,"61":-0.6030673384666443,"62":0.6295197606086731,"63":-0.5477429628372192,"64":0.639859676361084,"65":0.9983529448509216,"66":-1.6843234300613403,"67":1.1078540086746216,"68":-0.3071889877319336,"69":-0.3685612976551056,"70":1.7000563144683838,"71":0.3335501551628113,"72":0.41234520077705383,"73":-1.673162579536438,"74":1.086064338684082,"75":-0.9417283535003662,"76":0.4406890571117401,"77":-0.5736061930656433,"78":1.8489471673965454,"79":-2.393350839614868,"80":3.8612072467803955,"81":-1.1846846342086792,"82":-1.0821468830108643,"83":-0.5316897630691528,"84":-1.1180384159088135,"85":2.843750476837158,"86":1.5792498588562012,"87":-1.014971375465393,"88":-1.8978567123413086,"89":2.5153772830963135,"90":0.43292295932769775,"91":-1.0036158561706543,"92":0.3559686243534088,"93":1.7947545051574707,"94":-1.2103395462036133,"95":-1.9001837968826294,"96":1.1736851930618286,"97":-0.8427994847297668,"98":-2.400444269180298,"99":0.8753651976585388,"100":1.7923033237457275,"101":0.9489652514457703,"102":-0.7415482401847839,"103":-0.3961502015590668,"104":-1.7516967058181763,"105":1.299764633178711,"106":-0.31220096349716187,"107":0.4350723922252655,"108":0.1155984178185463,"109":1.4807474613189697,"110":-0.13770724833011627,"111":1.9588494300842285,"112":-1.321723222732544,"113":-0.2630007565021515,"114":-0.6721689105033875,"115":0.2568262815475464,"116":0.38271480798721313,"117":1.343435287475586,"118":1.33919095993042,"119":-2.0461769104003906,"120":0.4326704144477844,"121":0.07029346376657486,"122":-0.8206996917724609,"123":0.8019990921020508,"124":0.15449422597885132,"125":-0.4198140501976013,"126":2.4330601692199707,"127":1.471204400062561,"128":0.557662844657898,"129":1.140357494354248,"130":-0.9595990180969238,"131":1.2265386581420898,"132":0.6174363493919373,"133":-0.9624267816543579,"134":1.6380268335342407,"135":-1.193947672843933,"136":1.0497244596481323,"137":-0.21550442278385162,"138":-1.3284765481948853,"139":0.41859161853790283,"140":-1.0428377389907837,"141":-0.3507634103298187,"142":-0.5992608666419983,"143":-0.8194653391838074,"144":2.2522640228271484,"145":-1.0006998777389526,"146":1.72388756275177,"147":0.4051901698112488,"148":0.814516007900238,"149":1.143550992012024,"150":0.03750993683934212,"151":-1.2711641788482666,"152":-0.41917935013771057,"153":0.08635104447603226,"154":0.9848341941833496,"155":-0.01980608142912388,"156":0.9559066295623779,"157":-0.8398886919021606,"158":-1.4482898712158203,"159":0.3978913426399231,"160":0.6259296536445618,"161":-1.2807581424713135,"162":-1.2145448923110962,"163":-0.08466652035713196,"164":-1.2735601663589478,"165":1.9354726076126099,"166":2.2016193866729736,"167":0.03814724460244179,"168":1.024558424949646,"169":1.5825581550598145,"170":0.43871772289276123,"171":-1.7854489088058472,"172":1.7926337718963623,"173":0.20696383714675903,"174":0.7686727046966553,"175":-1.2182753086090088,"176":-0.9721874594688416,"177":0.07952304929494858,"178":-0.9070137739181519,"179":0.48452645540237427,"180":-0.9474495053291321,"181":-2.144493341445923,"182":-0.1149807944893837,"183":0.10676717758178711,"184":0.23486842215061188,"185":-1.5528987646102905,"186":1.0015194416046143,"187":1.9224456548690796,"188":0.6702598333358765,"189":1.5541101694107056,"190":0.050426047295331955,"191":-0.1432742476463318,"192":-1.1900546550750732,"193":-1.9203788042068481,"194":0.8853285908699036,"195":-0.7473356127738953,"196":-0.13738109171390533,"197":-3.390444040298462,"198":-1.1654605865478516,"199":0.9916572570800781,"200":-0.10358742624521255,"201":-1.157090663909912,"202":-1.42744779586792,"203":0.1554819941520691,"204":-0.46094217896461487,"205":1.6076852083206177,"206":-1.224600076675415,"207":-1.1118104457855225,"208":-0.37404051423072815,"209":1.8756202459335327,"210":0.7975227236747742,"211":-0.4612596929073334,"212":-1.3860841989517212,"213":0.23801276087760925,"214":0.026213785633444786,"215":2.503005027770996,"216":0.767077624797821,"217":-0.8461185097694397,"218":-1.6823402643203735,"219":-1.5405783653259277,"220":0.2589910924434662,"221":-0.5656499266624451,"222":-1.322641372680664,"223":0.7241887450218201,"224":0.9881955981254578,"225":1.1083025932312012,"226":1.0473731756210327,"227":1.9844921827316284,"228":-0.07628520578145981,"229":1.9186615943908691,"230":0.5296037197113037,"231":-1.6062097549438477,"232":0.01689872145652771,"233":-1.761778712272644,"234":2.538374423980713,"235":-2.327305793762207,"236":1.4873255491256714,"237":-1.3187201023101807,"238":0.007475994061678648,"239":2.3341801166534424,"240":-0.5174787640571594,"241":-1.3620290756225586,"242":0.39383354783058167,"243":0.4469187259674072,"244":1.105176329612732,"245":-0.5403205156326294,"246":-1.6019295454025269,"247":1.343518614768982,"248":0.6423784494400024,"249":-1.1345494985580444,"250":-0.7011178135871887,"251":0.4885365068912506,"252":-1.1303752660751343,"253":0.7547943592071533,"254":-1.0321917533874512,"255":0.7064323425292969,"256":-0.5999506115913391,"257":1.059486746788025,"258":-0.21674025058746338,"259":-0.7811048626899719,"260":-0.0753277838230133,"261":1.1089309453964233,"262":-0.7708166241645813,"263":1.4313139915466309,"264":0.48249101638793945,"265":-0.058904584497213364,"266":1.7177926301956177,"267":0.9698581099510193,"268":-0.7562912702560425,"269":2.1697840690612793,"270":-0.11289992183446884,"271":-1.3438111543655396,"272":0.6246711015701294,"273":-1.7361459732055664,"274":1.0775517225265503,"275":-1.9678996801376343,"276":1.2047532796859741,"277":0.5214276909828186,"278":-0.9974547624588013,"279":0.44274234771728516,"280":-2.460632562637329,"281":-2.0267715454101562,"282":-0.031190946698188782,"283":-1.4400004148483276,"284":0.8589174747467041,"285":0.18376870453357697,"286":0.72278892993927,"287":-1.1594113111495972,"288":-0.1489861011505127,"289":-0.3900434970855713,"290":-1.7267316579818726,"291":-0.6354284882545471,"292":0.7847140431404114,"293":-0.3964226543903351,"294":0.3593803346157074,"295":0.5290244221687317,"296":-0.6724275946617126,"297":1.9241546392440796,"298":0.3376610279083252,"299":1.6855865716934204,"300":-1.640476942062378,"301":-0.7734673619270325,"302":-0.3232881724834442,"303":1.3797681331634521,"304":1.2977734804153442,"305":0.01274237409234047,"306":1.1424676179885864,"307":2.20082688331604,"308":1.7287817001342773,"309":2.4004640579223633,"310":2.772261142730713,"311":-0.756619930267334,"312":0.980380117893219,"313":-1.4749687910079956,"314":-0.3698192536830902,"315":-1.7309339046478271,"316":-1.7560429573059082,"317":2.406233072280884,"318":-1.5383464097976685,"319":-0.5104358196258545,"320":-2.694829225540161,"321":1.2623752355575562,"322":-1.141830563545227,"323":1.3177565336227417,"324":2.804440498352051,"325":-0.8261499404907227,"326":-0.050932858139276505,"327":3.165621519088745,"328":2.0019359588623047,"329":0.030162746086716652,"330":0.2613847851753235,"331":-1.8369135856628418,"332":-2.08760142326355,"333":-3.2160260677337646,"334":1.2174632549285889,"335":-0.7346218824386597,"336":0.9883862733840942,"337":-0.26003870368003845,"338":-0.46438825130462646,"339":-0.9874237179756165,"340":-0.8629564046859741,"341":-1.982405424118042,"342":1.0862523317337036,"343":-0.8185638785362244,"344":-0.7665406465530396,"345":-0.9577145576477051,"346":-0.8419431447982788,"347":-0.13423751294612885,"348":0.3501216173171997,"349":-2.0611572265625,"350":1.2200560569763184,"351":1.6682831048965454,"352":0.6285627484321594,"353":1.7109313011169434,"354":-1.5840166807174683,"355":1.5602095127105713,"356":-2.47678542137146,"357":1.8023139238357544,"358":0.750077486038208,"359":0.08904393762350082,"360":0.4472780227661133,"361":-0.6020069122314453,"362":0.6719404458999634,"363":0.590442419052124,"364":0.8593995571136475,"365":-0.3789617419242859,"366":-0.04521884024143219,"367":1.0814584493637085,"368":1.0796520709991455,"369":2.6550233364105225,"370":1.0912796258926392,"371":0.1215810477733612,"372":0.6876030564308167,"373":-1.4065994024276733,"374":0.5613526105880737,"375":0.8703001737594604,"376":-0.3282994329929352,"377":-0.5705794095993042,"378":-0.9403041005134583,"379":-0.250970721244812,"380":0.5431649088859558,"381":-1.8489916324615479,"382":-1.5183700323104858,"383":-0.11542052775621414,"384":-0.6772388219833374,"385":1.561536431312561,"386":1.1621047258377075,"387":-1.5906494855880737,"388":-0.4187270700931549,"389":1.2074061632156372,"390":0.5474767088890076,"391":-1.1862378120422363,"392":-0.1316143423318863,"393":2.0615334510803223,"394":-0.5254027843475342,"395":-0.07023885846138,"396":-0.48293185234069824,"397":0.18606829643249512,"398":-1.3951815366744995,"399":-2.726158380508423}},"inputBias":{"rows":20,"columns":1,"weights":{"0":-0.9113844037055969,"1":-0.32467415928840637,"2":1.1669403314590454,"3":-1.209752082824707,"4":-0.536070704460144,"5":-0.3353089392185211,"6":-0.4830451011657715,"7":-0.011100554838776588,"8":-1.0909067392349243,"9":-2.8611979484558105,"10":0.5928945541381836,"11":-2.9227936267852783,"12":-0.07990698516368866,"13":-0.7345126271247864,"14":2.498093605041504,"15":-1.1881850957870483,"16":-0.06040845066308975,"17":-0.3578011095523834,"18":0.33930763602256775,"19":-1.1252779960632324}},"forgetMatrix":{"rows":20,"columns":10,"weights":{"0":-1.2164210081100464,"1":-0.5597959160804749,"2":-3.246532678604126,"3":0.7303004264831543,"4":-0.09949076920747757,"5":-0.14823786914348602,"6":0.3913528025150299,"7":-0.9759453535079956,"8":1.747443675994873,"9":-2.187131881713867,"10":0.31278061866760254,"11":0.40031856298446655,"12":1.2490599155426025,"13":-0.38140878081321716,"14":0.22642700374126434,"15":0.010022331960499287,"16":-1.3920811414718628,"17":0.11441371589899063,"18":-1.115016222000122,"19":1.313307523727417,"20":-1.8171427249908447,"21":0.41262903809547424,"22":-0.7248129844665527,"23":1.2138843536376953,"24":0.11223357170820236,"25":-1.423973560333252,"26":0.6997268199920654,"27":-1.0134648084640503,"28":1.876094102859497,"29":-0.9419160485267639,"30":1.5108519792556763,"31":1.4528061151504517,"32":1.5223075151443481,"33":-0.7739969491958618,"34":0.13653144240379333,"35":1.7845444679260254,"36":-0.7969268560409546,"37":1.753444790840149,"38":-1.9708141088485718,"39":0.0707402378320694,"40":-0.9472697377204895,"41":0.055923398584127426,"42":-2.7113256454467773,"43":0.6729403138160706,"44":-0.525081217288971,"45":-0.3975529074668884,"46":1.6020779609680176,"47":-0.6454294323921204,"48":1.6144644021987915,"49":-2.301011323928833,"50":-0.4903206527233124,"51":1.2025569677352905,"52":-0.17105530202388763,"53":1.8382903337478638,"54":0.6226801872253418,"55":0.04668835178017616,"56":0.3860645294189453,"57":0.2510420083999634,"58":0.2758902907371521,"59":-0.8921144008636475,"60":-0.9344111084938049,"61":1.7846317291259766,"62":0.2653553783893585,"63":0.9475321769714355,"64":-0.11875089257955551,"65":-0.730009138584137,"66":-2.003680467605591,"67":-0.9453520178794861,"68":-0.017377015203237534,"69":0.3598911166191101,"70":2.169384002685547,"71":-0.32723772525787354,"72":0.738339364528656,"73":-1.2476933002471924,"74":-0.48495256900787354,"75":1.0190792083740234,"76":-0.7457305788993835,"77":0.41313257813453674,"78":-2.624480962753296,"79":0.2549935281276703,"80":1.1374309062957764,"81":0.09694913029670715,"82":-0.8811940550804138,"83":-1.7240201234817505,"84":-0.7324845790863037,"85":0.07628356665372849,"86":0.6759704947471619,"87":-0.13228049874305725,"88":-0.2062990814447403,"89":-0.9609008431434631,"90":-0.4710044264793396,"91":1.897950291633606,"92":0.19952599704265594,"93":1.7850642204284668,"94":1.6814409494400024,"95":0.944675087928772,"96":-0.3834628462791443,"97":1.499341368675232,"98":0.5016108155250549,"99":0.09081268310546875,"100":-1.5805882215499878,"101":0.8996585011482239,"102":0.2324986308813095,"103":1.4700181484222412,"104":0.4852063059806824,"105":-1.2539247274398804,"106":0.24324138462543488,"107":-1.6719244718551636,"108":1.1265605688095093,"109":0.06979680806398392,"110":-1.2672942876815796,"111":1.2568727731704712,"112":-0.4363163113594055,"113":1.6283988952636719,"114":-0.6153148412704468,"115":-0.11661507189273834,"116":-0.529455840587616,"117":0.03461925685405731,"118":1.669372320175171,"119":-0.5857933759689331,"120":0.7233901023864746,"121":0.7144814729690552,"122":1.8395589590072632,"123":-0.1237536147236824,"124":0.8506363034248352,"125":2.284832239151001,"126":-0.7434290051460266,"127":1.175491452217102,"128":-0.9546095728874207,"129":1.0317827463150024,"130":1.7295023202896118,"131":0.06877860426902771,"132":0.5127342939376831,"133":-1.537754774093628,"134":-0.07025200873613358,"135":0.6225544214248657,"136":0.25314539670944214,"137":0.5354268550872803,"138":-0.22513745725154877,"139":0.9754526615142822,"140":0.3485861122608185,"141":-1.641276478767395,"142":-1.0533456802368164,"143":0.23083674907684326,"144":-2.0357394218444824,"145":-1.13988196849823,"146":0.383261114358902,"147":-1.9417598247528076,"148":0.8164804577827454,"149":-1.0453256368637085,"150":2.029230833053589,"151":-0.5367454290390015,"152":0.707379162311554,"153":-1.5746897459030151,"154":-0.5393576622009277,"155":1.1396359205245972,"156":0.26429522037506104,"157":-0.04639000818133354,"158":-2.6836023330688477,"159":-0.18062405288219452,"160":1.1024079322814941,"161":0.13382209837436676,"162":0.8532082438468933,"163":-0.9998672604560852,"164":-1.3615405559539795,"165":0.9277086853981018,"166":-1.414410948753357,"167":-0.22882753610610962,"168":-1.749847412109375,"169":0.9575382471084595,"170":-1.1786545515060425,"171":-0.9502507448196411,"172":0.42015984654426575,"173":0.9995077848434448,"174":-0.32900455594062805,"175":-2.036308526992798,"176":-0.4158501923084259,"177":-0.9833658337593079,"178":0.3398290276527405,"179":0.4708572030067444,"180":0.11947017908096313,"181":-0.046594779938459396,"182":0.30371716618537903,"183":0.72528076171875,"184":0.36516544222831726,"185":0.5301949977874756,"186":0.020411986857652664,"187":-0.1936372071504593,"188":-1.00494384765625,"189":0.20275947451591492,"190":-0.9250332117080688,"191":-1.0381460189819336,"192":-1.1937320232391357,"193":0.26266026496887207,"194":0.22067375481128693,"195":-1.0248663425445557,"196":1.6127901077270508,"197":-1.6256343126296997,"198":1.412682056427002,"199":-1.0271319150924683}},"forgetHidden":{"rows":20,"columns":20,"weights":{"0":0.19518454372882843,"1":-1.0766268968582153,"2":-0.07311879098415375,"3":0.6195539832115173,"4":-0.6799834966659546,"5":-0.23111602663993835,"6":1.5036643743515015,"7":-0.6699827909469604,"8":-0.38985785841941833,"9":1.2569230794906616,"10":-0.2802998125553131,"11":1.327567458152771,"12":0.9296277165412903,"13":1.3385062217712402,"14":-0.09601441770792007,"15":1.6492691040039062,"16":-0.4952174425125122,"17":1.063592553138733,"18":0.271767258644104,"19":0.3170437216758728,"20":-1.0169864892959595,"21":-0.08186914026737213,"22":-0.11435358226299286,"23":-0.3609161972999573,"24":1.4125999212265015,"25":-0.07852185517549515,"26":0.2458559274673462,"27":0.40809106826782227,"28":0.7041253447532654,"29":-1.1001144647598267,"30":-0.13400116562843323,"31":0.04397914186120033,"32":0.8358285427093506,"33":-1.2874313592910767,"34":1.847978115081787,"35":-0.3692816197872162,"36":-0.08485061675310135,"37":0.576614260673523,"38":-1.1675742864608765,"39":1.034592866897583,"40":0.011417379602789879,"41":0.9833512902259827,"42":-1.3901746273040771,"43":0.9200561046600342,"44":-0.8436694145202637,"45":0.7794699668884277,"46":0.9199631214141846,"47":0.3701481819152832,"48":1.0549982786178589,"49":-0.48973309993743896,"50":0.457615464925766,"51":-0.9796926379203796,"52":-0.8680582046508789,"53":0.9512884616851807,"54":-0.29330459237098694,"55":-2.083247661590576,"56":0.9589795470237732,"57":-0.6963315010070801,"58":-0.36711496114730835,"59":0.29956817626953125,"60":1.210750699043274,"61":-0.1776009202003479,"62":-0.09590930491685867,"63":-1.0252968072891235,"64":-0.5601139664649963,"65":0.9980252981185913,"66":-1.0155009031295776,"67":-0.018451375886797905,"68":-1.8805787563323975,"69":0.4120056927204132,"70":0.06160266324877739,"71":0.5482568740844727,"72":-0.4047761559486389,"73":-0.03384606912732124,"74":-0.2066638022661209,"75":0.22045813500881195,"76":-0.17460541427135468,"77":-0.40832820534706116,"78":0.35726022720336914,"79":-0.15164509415626526,"80":1.0978164672851562,"81":-0.09052103757858276,"82":0.8672438859939575,"83":-0.49944019317626953,"84":-0.7986249327659607,"85":1.445324420928955,"86":-0.8266603946685791,"87":0.9429258704185486,"88":-0.17604674398899078,"89":-0.34011057019233704,"90":-1.048437237739563,"91":0.6056872606277466,"92":-0.4769432842731476,"93":0.1384904384613037,"94":0.009214420802891254,"95":-1.2731515169143677,"96":-1.0269286632537842,"97":-0.32605013251304626,"98":0.8088697791099548,"99":0.08900557458400726,"100":-1.0602959394454956,"101":0.9146502614021301,"102":1.1444027423858643,"103":0.9953905344009399,"104":0.0823984369635582,"105":-1.1630074977874756,"106":0.995327353477478,"107":0.7470012903213501,"108":0.29760417342185974,"109":-0.4652249217033386,"110":0.2478078305721283,"111":-0.053144197911024094,"112":-0.026862895116209984,"113":-0.28732895851135254,"114":-0.10488475114107132,"115":-0.1974300742149353,"116":0.7307049036026001,"117":-0.32903483510017395,"118":-0.8704030513763428,"119":-0.5158487558364868,"120":-0.42482447624206543,"121":-0.8376010060310364,"122":2.2465789318084717,"123":-0.2773796617984772,"124":-0.050320278853178024,"125":0.5947375893592834,"126":0.05579782649874687,"127":-1.3895597457885742,"128":-0.8161647319793701,"129":-1.8692190647125244,"130":-1.1839410066604614,"131":0.8963805437088013,"132":0.053184185177087784,"133":0.0802939310669899,"134":-0.2860369086265564,"135":1.3050767183303833,"136":-0.8552859425544739,"137":0.4618781805038452,"138":1.6767020225524902,"139":-0.41737207770347595,"140":-0.03387419879436493,"141":0.371304452419281,"142":-0.09579359740018845,"143":0.7336239218711853,"144":0.7306339740753174,"145":-0.8743350505828857,"146":0.4853764474391937,"147":0.15930622816085815,"148":-0.07791832089424133,"149":0.6169465184211731,"150":0.20762747526168823,"151":-0.27797651290893555,"152":-0.8006516695022583,"153":-0.8228816986083984,"154":0.530827522277832,"155":-0.2665705978870392,"156":1.023634910583496,"157":0.23074860870838165,"158":0.41780784726142883,"159":-0.35574713349342346,"160":0.6137146353721619,"161":0.10330168157815933,"162":-0.08610180020332336,"163":1.285187005996704,"164":-0.2643887996673584,"165":0.5602809190750122,"166":0.5198085308074951,"167":-0.3127426505088806,"168":0.7716683149337769,"169":-0.6875775456428528,"170":0.4365600645542145,"171":-1.220937728881836,"172":0.18326374888420105,"173":0.012574713677167892,"174":-0.42237526178359985,"175":0.33626559376716614,"176":0.0920678898692131,"177":1.3389555215835571,"178":0.947045087814331,"179":-0.5208646655082703,"180":-0.11434809863567352,"181":-0.25436919927597046,"182":1.11737859249115,"183":-2.1525638103485107,"184":0.14985890686511993,"185":1.4699536561965942,"186":-0.107551708817482,"187":0.21978522837162018,"188":-0.3309984803199768,"189":-1.2154656648635864,"190":1.133583664894104,"191":1.5573235750198364,"192":1.2930318117141724,"193":-0.26731082797050476,"194":0.9872724413871765,"195":0.23940257728099823,"196":-1.6583600044250488,"197":-0.17459575831890106,"198":-0.2822018265724182,"199":-0.25209665298461914,"200":-0.6913663148880005,"201":-0.3894783556461334,"202":1.2502809762954712,"203":0.41581210494041443,"204":-1.4058600664138794,"205":-0.9644709825515747,"206":-0.9970629811286926,"207":-0.7070220112800598,"208":-0.6914823651313782,"209":-0.6543568968772888,"210":0.03590469807386398,"211":0.8915154933929443,"212":-0.015310662798583508,"213":-0.2660553455352783,"214":0.16363543272018433,"215":1.1664210557937622,"216":0.46854111552238464,"217":-1.13679838180542,"218":0.004009874537587166,"219":0.2033359557390213,"220":-2.5807108879089355,"221":0.23431703448295593,"222":-0.0691237673163414,"223":0.1549055129289627,"224":0.08628592640161514,"225":-0.4261903166770935,"226":-0.47268879413604736,"227":0.9912245869636536,"228":0.8141384124755859,"229":-0.4147571325302124,"230":0.3394429087638855,"231":-0.4404584765434265,"232":0.7033997178077698,"233":-0.4306779205799103,"234":-0.3510213792324066,"235":-0.6033542156219482,"236":-1.4421175718307495,"237":0.2092442363500595,"238":1.3526521921157837,"239":-0.015068583190441132,"240":1.0954903364181519,"241":1.4213635921478271,"242":0.30784326791763306,"243":1.0987380743026733,"244":-1.8604011535644531,"245":2.808011531829834,"246":-0.20280444622039795,"247":0.28626298904418945,"248":1.6844123601913452,"249":0.17511601746082306,"250":-0.8053606152534485,"251":0.6756375432014465,"252":0.6837882399559021,"253":1.8735982179641724,"254":0.07235368341207504,"255":-0.007752800360321999,"256":-0.3135051131248474,"257":0.3694950342178345,"258":0.32350537180900574,"259":-0.2778688371181488,"260":-0.9343254566192627,"261":0.9625777006149292,"262":-1.1425060033798218,"263":0.4484323263168335,"264":1.1315886974334717,"265":-0.17720083892345428,"266":0.17491492629051208,"267":0.8498092889785767,"268":-2.0903258323669434,"269":1.137978196144104,"270":-0.3194567859172821,"271":0.042231034487485886,"272":-0.28435149788856506,"273":-1.6855937242507935,"274":2.1598291397094727,"275":-0.38726532459259033,"276":1.0836119651794434,"277":0.05342383310198784,"278":0.21862810850143433,"279":0.0589945949614048,"280":-2.172541618347168,"281":0.798095703125,"282":1.7309222221374512,"283":-0.5180384516716003,"284":2.9358949661254883,"285":-1.4749752283096313,"286":-1.6665596961975098,"287":-0.10964208841323853,"288":-0.43624380230903625,"289":-1.8977940082550049,"290":-0.12396726757287979,"291":0.5063976049423218,"292":-1.7088102102279663,"293":1.0231802463531494,"294":-0.6509965658187866,"295":1.0509079694747925,"296":0.45200762152671814,"297":-0.8005297183990479,"298":-0.13240747153759003,"299":-1.504947543144226,"300":1.9909266233444214,"301":0.2680157721042633,"302":0.509991466999054,"303":-0.0959051102399826,"304":-0.2863307595252991,"305":0.5027892589569092,"306":-0.2563469409942627,"307":0.37529757618904114,"308":-0.7461666464805603,"309":0.14055892825126648,"310":0.29383039474487305,"311":0.4062804877758026,"312":-0.8685526847839355,"313":-0.1671103835105896,"314":-0.43772271275520325,"315":-0.14568328857421875,"316":0.816162645816803,"317":-0.01773008517920971,"318":0.17488424479961395,"319":0.16477841138839722,"320":0.37590673565864563,"321":0.4784988760948181,"322":0.2313457429409027,"323":-0.7916056513786316,"324":0.3049454092979431,"325":0.8426294922828674,"326":2.722578287124634,"327":-1.0015037059783936,"328":-0.19486498832702637,"329":0.2530911862850189,"330":0.41100820899009705,"331":-1.44451904296875,"332":0.8757818937301636,"333":0.13843010365962982,"334":-0.87700355052948,"335":0.8441975116729736,"336":-1.083654522895813,"337":0.29362398386001587,"338":0.6552503705024719,"339":-0.05018039792776108,"340":-1.090338110923767,"341":-0.7753772735595703,"342":0.026349762454628944,"343":0.1823519617319107,"344":0.44046488404273987,"345":-0.9558457136154175,"346":0.675940215587616,"347":-0.036387525498867035,"348":-0.2797166109085083,"349":1.7227970361709595,"350":1.413413166999817,"351":-0.8657336831092834,"352":0.9226847290992737,"353":0.9027331471443176,"354":-0.7361801862716675,"355":1.3693128824234009,"356":-0.8178791999816895,"357":-0.7931803464889526,"358":-0.47897088527679443,"359":-0.19086310267448425,"360":0.7585762143135071,"361":-1.1230857372283936,"362":1.021472692489624,"363":-0.7174868583679199,"364":-1.5350090265274048,"365":1.084015965461731,"366":1.6543807983398438,"367":-0.5199564695358276,"368":0.36371609568595886,"369":2.030914306640625,"370":1.0955134630203247,"371":-1.4845324754714966,"372":0.04424796253442764,"373":1.7051008939743042,"374":-0.6415829062461853,"375":0.30354180932044983,"376":-0.10464590042829514,"377":-0.9133161902427673,"378":-0.9702747464179993,"379":-1.6386370658874512,"380":-0.9011730551719666,"381":0.9428204894065857,"382":-0.6033154726028442,"383":0.7382838129997253,"384":-0.08235691487789154,"385":-1.564159631729126,"386":-1.0315749645233154,"387":-0.8353803157806396,"388":0.6096329689025879,"389":-0.9684828519821167,"390":0.17832064628601074,"391":-0.664667010307312,"392":0.337780237197876,"393":0.2325167953968048,"394":-0.5317422747612,"395":-0.3081015348434448,"396":-0.41044238209724426,"397":0.45177531242370605,"398":1.3566104173660278,"399":0.2224007248878479}},"forgetBias":{"rows":20,"columns":1,"weights":{"0":0,"1":0,"2":0,"3":0,"4":0,"5":0,"6":0,"7":0,"8":0,"9":0,"10":0,"11":0,"12":0,"13":0,"14":0,"15":0,"16":0,"17":0,"18":0,"19":0}},"outputMatrix":{"rows":20,"columns":10,"weights":{"0":0.0496574304997921,"1":-0.3382873833179474,"2":-0.09422599524259567,"3":-0.21165049076080322,"4":-1.9239952564239502,"5":-2.1545357704162598,"6":-1.2569218873977661,"7":-3.013554096221924,"8":0.5882329940795898,"9":1.1952974796295166,"10":-1.3368955850601196,"11":-1.672472357749939,"12":-1.9626706838607788,"13":0.7941616773605347,"14":0.31940898299217224,"15":-1.0956614017486572,"16":-0.11811230331659317,"17":-1.0469528436660767,"18":0.8171896934509277,"19":-0.35043808817863464,"20":0.05396216735243797,"21":2.8352553844451904,"22":-0.3786531090736389,"23":0.949286162853241,"24":4.1901044845581055,"25":0.6059282422065735,"26":-0.4114782512187958,"27":2.598414659500122,"28":-0.5307891964912415,"29":0.6520211100578308,"30":0.20510347187519073,"31":-1.2082141637802124,"32":0.8322784304618835,"33":-1.6514281034469604,"34":-2.659817934036255,"35":-0.8850685954093933,"36":-0.5892414450645447,"37":-1.3506078720092773,"38":-0.4355987310409546,"39":0.8531268239021301,"40":-1.219814658164978,"41":-0.7671112418174744,"42":-0.5705568790435791,"43":2.0404105186462402,"44":-0.6905319690704346,"45":-1.668979287147522,"46":1.7802379131317139,"47":-2.104790687561035,"48":2.9343385696411133,"49":-0.14380492269992828,"50":0.4744229316711426,"51":-1.630247712135315,"52":1.3873696327209473,"53":-1.0076837539672852,"54":0.15989087522029877,"55":0.6309037804603577,"56":1.54055655002594,"57":0.5364288091659546,"58":-0.6042349934577942,"59":-0.3389173746109009,"60":2.327237367630005,"61":0.39242154359817505,"62":-0.6880650520324707,"63":-0.6736658811569214,"64":-0.5020507574081421,"65":2.364496946334839,"66":1.1085355281829834,"67":1.1994990110397339,"68":0.8656136989593506,"69":-0.4394952058792114,"70":0.1125270277261734,"71":-1.7279062271118164,"72":-0.4772408902645111,"73":-0.015349005348980427,"74":-0.8064449429512024,"75":-0.7352081537246704,"76":1.884639024734497,"77":-0.1485999971628189,"78":0.6223825216293335,"79":-0.8572510480880737,"80":0.4763678014278412,"81":-0.5149317383766174,"82":0.27032291889190674,"83":-1.0075116157531738,"84":-1.4306049346923828,"85":-1.246344804763794,"86":-1.452837586402893,"87":-0.5107932090759277,"88":0.797942578792572,"89":0.5503812432289124,"90":0.8646479845046997,"91":1.7995518445968628,"92":1.4255788326263428,"93":2.159048557281494,"94":-1.2637180089950562,"95":0.8064625859260559,"96":-1.1641087532043457,"97":-0.009213119745254517,"98":-0.9230677485466003,"99":1.8511887788772583,"100":-0.8182199001312256,"101":-0.5152184963226318,"102":-0.48049497604370117,"103":-1.3921654224395752,"104":0.7021558880805969,"105":0.2517291009426117,"106":1.3155887126922607,"107":0.1589801013469696,"108":0.451014906167984,"109":-2.2079110145568848,"110":1.2824267148971558,"111":3.097278118133545,"112":0.99224853515625,"113":-0.49810945987701416,"114":-0.1714346706867218,"115":0.6837239265441895,"116":0.43553292751312256,"117":0.05930052697658539,"118":0.0830998495221138,"119":-0.06869616359472275,"120":-1.2327301502227783,"121":0.5948272943496704,"122":-0.274369478225708,"123":1.1819261312484741,"124":1.3865747451782227,"125":0.6716933846473694,"126":-0.3812407851219177,"127":0.9978339672088623,"128":0.423376202583313,"129":-0.07937502861022949,"130":-1.6825677156448364,"131":-0.96873939037323,"132":-1.3756942749023438,"133":1.525783896446228,"134":0.5478034615516663,"135":-1.6181780099868774,"136":0.942607045173645,"137":-1.5137826204299927,"138":2.0612881183624268,"139":-0.5706275701522827,"140":-1.8042126893997192,"141":0.13242432475090027,"142":-0.07883267104625702,"143":2.5221428871154785,"144":0.505973219871521,"145":-0.3244679570198059,"146":-0.06035160273313522,"147":0.1860668957233429,"148":0.7957248091697693,"149":-0.352227121591568,"150":0.9317619800567627,"151":-0.06038615107536316,"152":0.15328474342823029,"153":0.3434925973415375,"154":-0.0660867840051651,"155":0.6853412389755249,"156":2.1516220569610596,"157":1.125583291053772,"158":-0.004990979563444853,"159":0.15031315386295319,"160":-0.2250789850950241,"161":-1.9542663097381592,"162":0.9624469876289368,"163":0.38649964332580566,"164":-2.338840961456299,"165":-1.9608101844787598,"166":-0.7532961368560791,"167":-1.7169554233551025,"168":-0.31170862913131714,"169":1.4689606428146362,"170":-1.3220947980880737,"171":-0.51409512758255,"172":-0.3676297962665558,"173":1.7491748332977295,"174":1.0956143140792847,"175":0.44298893213272095,"176":1.317291259765625,"177":0.030821125954389572,"178":0.008012617938220501,"179":0.03543328121304512,"180":-1.663705587387085,"181":-0.28821125626564026,"182":0.5833602547645569,"183":1.0059038400650024,"184":1.7496110200881958,"185":1.2591421604156494,"186":1.344096302986145,"187":1.6941702365875244,"188":0.39290863275527954,"189":1.1743675470352173,"190":1.6720302104949951,"191":-0.20504678785800934,"192":-0.7671775221824646,"193":0.003258508862927556,"194":0.2179848551750183,"195":2.927500009536743,"196":2.4875643253326416,"197":2.169520139694214,"198":0.06070367991924286,"199":0.09697239845991135}},"outputHidden":{"rows":20,"columns":20,"weights":{"0":0.6709147691726685,"1":-0.6570850610733032,"2":-0.7715740203857422,"3":0.8127050399780273,"4":0.19908246397972107,"5":1.038702130317688,"6":2.5454835891723633,"7":-0.5711403489112854,"8":0.18587562441825867,"9":-0.08242304623126984,"10":-0.4818781912326813,"11":-0.8940569162368774,"12":1.3046987056732178,"13":-0.21494893729686737,"14":1.6145493984222412,"15":0.16352126002311707,"16":-0.9235522747039795,"17":1.0956965684890747,"18":0.2528430223464966,"19":1.4306576251983643,"20":-0.3329610824584961,"21":-1.575107455253601,"22":-1.8963358402252197,"23":0.008533671498298645,"24":-0.34316524863243103,"25":0.09004667401313782,"26":1.2105698585510254,"27":-0.8839523792266846,"28":0.7364313006401062,"29":1.0587158203125,"30":-0.8108345866203308,"31":0.9178028702735901,"32":0.5332953929901123,"33":0.15908044576644897,"34":-0.548799991607666,"35":1.4416778087615967,"36":0.3831503391265869,"37":-1.015334963798523,"38":-1.7362432479858398,"39":1.2506803274154663,"40":-1.5736299753189087,"41":-0.9339208602905273,"42":1.027083158493042,"43":0.04473290964961052,"44":-1.0054056644439697,"45":-0.2891419529914856,"46":0.052881740033626556,"47":1.2270480394363403,"48":0.7820024490356445,"49":0.8648045659065247,"50":0.011841285042464733,"51":0.04854865372180939,"52":1.0211756229400635,"53":-0.3225555121898651,"54":0.02415386401116848,"55":-0.35738542675971985,"56":-0.25456079840660095,"57":1.4589561223983765,"58":0.4302048981189728,"59":2.4448843002319336,"60":0.2330017387866974,"61":-0.262254536151886,"62":0.6979278922080994,"63":1.3110846281051636,"64":0.7269026041030884,"65":2.0050575733184814,"66":-0.2515774965286255,"67":1.050175666809082,"68":0.7575504779815674,"69":0.15380233526229858,"70":0.7942162752151489,"71":-0.1433587521314621,"72":0.9100860357284546,"73":-0.7141645550727844,"74":0.5947359800338745,"75":-1.1706135272979736,"76":0.3396698534488678,"77":-0.2502196431159973,"78":1.0092841386795044,"79":-1.1565346717834473,"80":0.5492903590202332,"81":-0.9606521129608154,"82":-1.1844887733459473,"83":-1.091760516166687,"84":-0.08443840593099594,"85":-0.7205056548118591,"86":0.4524471163749695,"87":-0.0631752535700798,"88":0.5695070028305054,"89":0.7021885514259338,"90":1.429436206817627,"91":0.04301886260509491,"92":0.5588605999946594,"93":0.7986130118370056,"94":0.17890465259552002,"95":-2.1477572917938232,"96":0.21567383408546448,"97":-0.9668995141983032,"98":-0.11217886954545975,"99":0.6447683572769165,"100":-1.200066089630127,"101":0.2522542178630829,"102":0.4468761086463928,"103":2.6986405849456787,"104":0.5026231408119202,"105":-0.05471635237336159,"106":1.2760419845581055,"107":0.3325870633125305,"108":-0.012207194231450558,"109":-0.6048881411552429,"110":-0.731013834476471,"111":0.977726399898529,"112":-2.921355724334717,"113":0.007012835703790188,"114":1.9114084243774414,"115":0.7405945062637329,"116":3.2462666034698486,"117":-1.0184955596923828,"118":-2.1511659622192383,"119":-1.802150011062622,"120":-0.2828224003314972,"121":0.33286160230636597,"122":0.39227503538131714,"123":2.315408706665039,"124":0.8574613928794861,"125":0.8334108591079712,"126":1.0676956176757812,"127":0.2965615689754486,"128":0.7778303623199463,"129":0.234906405210495,"130":0.35374486446380615,"131":0.025863992050290108,"132":-0.24033962190151215,"133":-1.280983328819275,"134":1.7412917613983154,"135":-0.5456828474998474,"136":0.7993793487548828,"137":0.17827048897743225,"138":-2.005638599395752,"139":-0.40952441096305847,"140":-1.0723315477371216,"141":0.28167474269866943,"142":-1.1848299503326416,"143":0.6634954214096069,"144":3.808256149291992,"145":-0.5649740099906921,"146":1.0617302656173706,"147":1.212001919746399,"148":0.7955578565597534,"149":1.8955594301223755,"150":-0.4040645956993103,"151":-2.600951671600342,"152":-0.49324288964271545,"153":-0.12923328578472137,"154":0.5368462800979614,"155":-1.9040155410766602,"156":0.6861395835876465,"157":0.13900093734264374,"158":-2.199695587158203,"159":-0.10329403728246689,"160":-0.4248937666416168,"161":-0.8155636191368103,"162":-1.28635573387146,"163":0.36973777413368225,"164":-1.2474896907806396,"165":1.4113450050354004,"166":1.943518877029419,"167":-0.9006202220916748,"168":0.45053666830062866,"169":0.9313421249389648,"170":0.45768865942955017,"171":-2.4567291736602783,"172":0.9985592365264893,"173":-0.3201325833797455,"174":0.5177499651908875,"175":-0.962623119354248,"176":-1.3604912757873535,"177":-0.604291558265686,"178":-1.1601389646530151,"179":1.1339213848114014,"180":-1.2302231788635254,"181":-1.07780122756958,"182":-0.10155576467514038,"183":0.48184317350387573,"184":0.5636047720909119,"185":-0.3150789737701416,"186":0.24017496407032013,"187":2.4072322845458984,"188":1.6744674444198608,"189":-0.1365840882062912,"190":0.19220566749572754,"191":0.20006825029850006,"192":0.454588919878006,"193":-0.8241716623306274,"194":0.906410813331604,"195":-1.0408427715301514,"196":0.038006313145160675,"197":-3.081514596939087,"198":-1.0850732326507568,"199":1.044979453086853,"200":-0.834014892578125,"201":-1.1714826822280884,"202":-0.15380702912807465,"203":0.20595389604568481,"204":-0.16691264510154724,"205":0.6971088647842407,"206":0.7919918298721313,"207":-1.5278533697128296,"208":-0.7024433612823486,"209":0.9835502505302429,"210":-1.1499965190887451,"211":-1.556758165359497,"212":-2.0221107006073,"213":0.03105591982603073,"214":0.9929059147834778,"215":2.9272303581237793,"216":3.4786856174468994,"217":-1.340071439743042,"218":-2.588775157928467,"219":-1.1664962768554688,"220":-0.380507230758667,"221":-0.11677058041095734,"222":1.5765148401260376,"223":0.8741244673728943,"224":0.8451632261276245,"225":-0.20311599969863892,"226":-0.5528393983840942,"227":2.068896532058716,"228":0.283551424741745,"229":0.386104017496109,"230":0.509153425693512,"231":-0.6782698035240173,"232":-1.0897728204727173,"233":-1.6032110452651978,"234":1.8807671070098877,"235":-1.4468042850494385,"236":2.0048890113830566,"237":-0.9520211219787598,"238":0.26040852069854736,"239":1.0310475826263428,"240":0.660598874092102,"241":-0.8898810744285583,"242":0.5634809136390686,"243":-1.7484540939331055,"244":-2.1466939449310303,"245":1.0536857843399048,"246":-2.667236566543579,"247":-1.1008429527282715,"248":0.22276711463928223,"249":-2.4972102642059326,"250":0.7420122623443604,"251":0.8152915835380554,"252":0.5608656406402588,"253":2.3797178268432617,"254":-1.7176259756088257,"255":1.7049095630645752,"256":-0.5087549090385437,"257":0.6153250932693481,"258":2.2284841537475586,"259":-1.750020980834961,"260":-1.0434815883636475,"261":0.7484473586082458,"262":-0.31187960505485535,"263":0.6454148292541504,"264":0.7707145810127258,"265":0.15482783317565918,"266":2.346102714538574,"267":0.48374342918395996,"268":0.4536975920200348,"269":2.2352135181427,"270":0.2508763074874878,"271":-1.0991699695587158,"272":1.9913506507873535,"273":-0.6388656497001648,"274":0.9631534218788147,"275":-1.5657048225402832,"276":-0.7277721166610718,"277":0.3865402042865753,"278":-0.371096670627594,"279":0.9459923505783081,"280":-2.261136054992676,"281":-1.0224289894104004,"282":-4.001462936401367,"283":-0.1828514188528061,"284":0.8526169657707214,"285":-1.21820867061615,"286":-0.2748315632343292,"287":-0.6746581792831421,"288":1.7403711080551147,"289":1.9649629592895508,"290":-0.8093883991241455,"291":-2.0914053916931152,"292":-0.2562999129295349,"293":0.19654029607772827,"294":-0.5765600800514221,"295":-1.979219913482666,"296":-0.15193581581115723,"297":0.013457325287163258,"298":0.19053998589515686,"299":-0.811886727809906,"300":-2.6153597831726074,"301":-1.339199423789978,"302":-0.7115736603736877,"303":2.4192192554473877,"304":1.1987051963806152,"305":-2.012559652328491,"306":1.5457926988601685,"307":2.924142360687256,"308":2.8717892169952393,"309":2.475054979324341,"310":1.4577395915985107,"311":-1.0858211517333984,"312":-0.10303395986557007,"313":-0.5178472995758057,"314":0.29270419478416443,"315":-2.0021448135375977,"316":-0.6977927088737488,"317":0.35802003741264343,"318":-1.0084164142608643,"319":-1.6078044176101685,"320":0.5459539294242859,"321":0.6390475034713745,"322":-0.5674023032188416,"323":0.48432105779647827,"324":0.32789716124534607,"325":0.6106889843940735,"326":0.5826431512832642,"327":0.05937151610851288,"328":-0.042121145874261856,"329":0.5942540764808655,"330":2.0204341411590576,"331":-1.413649082183838,"332":0.4658415615558624,"333":-0.21693482995033264,"334":-0.7909496426582336,"335":-1.9277496337890625,"336":-0.188527449965477,"337":1.1285136938095093,"338":1.8834140300750732,"339":-0.8517777323722839,"340":-0.8431292772293091,"341":-1.7662643194198608,"342":1.1047457456588745,"343":-0.5646806359291077,"344":-1.4810348749160767,"345":-0.2795444130897522,"346":-3.2113614082336426,"347":0.06553501635789871,"348":0.6678449511528015,"349":-1.5133553743362427,"350":1.7477588653564453,"351":0.28049665689468384,"352":1.5278480052947998,"353":1.6178478002548218,"354":-1.2284436225891113,"355":0.9645719528198242,"356":-1.3054614067077637,"357":1.3197218179702759,"358":0.8855463266372681,"359":-0.7660543322563171,"360":0.393903523683548,"361":-0.6616665124893188,"362":0.929015576839447,"363":-1.1796752214431763,"364":-1.2614811658859253,"365":2.825094699859619,"366":-0.9336254000663757,"367":-0.5373474359512329,"368":-1.1741743087768555,"369":1.1508108377456665,"370":1.67412269115448,"371":1.0134472846984863,"372":-0.8165861964225769,"373":0.7711527347564697,"374":-0.08472494781017303,"375":-0.7236274480819702,"376":-1.051947832107544,"377":-0.507610559463501,"378":0.16532334685325623,"379":-0.5077324509620667,"380":1.3417775630950928,"381":-0.42389971017837524,"382":-1.8973820209503174,"383":1.343772292137146,"384":0.30080273747444153,"385":2.10575008392334,"386":1.3647750616073608,"387":-1.1565035581588745,"388":0.9145852327346802,"389":2.9399633407592773,"390":0.4221457242965698,"391":-2.952024221420288,"392":1.0913987159729004,"393":1.0535264015197754,"394":1.1722276210784912,"395":-1.0742374658584595,"396":-0.6897117495536804,"397":2.4115309715270996,"398":0.04649020731449127,"399":-1.069860577583313}},"outputBias":{"rows":20,"columns":1,"weights":{"0":-0.8878551721572876,"1":-0.32120031118392944,"2":1.1980186700820923,"3":-1.1762453317642212,"4":-0.49121028184890747,"5":-0.41657716035842896,"6":-1.973263144493103,"7":-0.3163073658943176,"8":-1.029310941696167,"9":-3.1195590496063232,"10":0.9856944680213928,"11":-2.760159969329834,"12":-0.1433851420879364,"13":-0.685431957244873,"14":3.6909408569335938,"15":-1.2586753368377686,"16":0.1404847353696823,"17":-2.1922037601470947,"18":0.2513401210308075,"19":-1.2892125844955444}},"cellActivationMatrix":{"rows":20,"columns":10,"weights":{"0":-0.4138003885746002,"1":-0.7300322651863098,"2":-0.5888208746910095,"3":-0.1742960512638092,"4":1.0081508159637451,"5":0.36533525586128235,"6":1.8716734647750854,"7":-0.03430284559726715,"8":0.16601881384849548,"9":-1.4416370391845703,"10":1.8956207036972046,"11":0.9038424491882324,"12":1.2252029180526733,"13":-2.072303056716919,"14":-0.23672796785831451,"15":0.5405313968658447,"16":-0.14492395520210266,"17":0.6420564651489258,"18":-1.6309255361557007,"19":0.5935469269752502,"20":-1.7269871234893799,"21":-0.6439321041107178,"22":-1.3129302263259888,"23":0.8147328495979309,"24":0.2800356149673462,"25":-0.6499494910240173,"26":0.10621519386768341,"27":-0.36044615507125854,"28":1.0318584442138672,"29":-1.0333586931228638,"30":0.5610643625259399,"31":1.5606513023376465,"32":1.0014690160751343,"33":-0.7408555150032043,"34":0.8863095641136169,"35":0.27242857217788696,"36":-0.9371312856674194,"37":1.029662013053894,"38":-0.9213973879814148,"39":0.6968661546707153,"40":0.8409926295280457,"41":1.9206234216690063,"42":2.611393928527832,"43":-0.5794746279716492,"44":-0.45754218101501465,"45":-0.09238965809345245,"46":-1.028039574623108,"47":0.3693147301673889,"48":-1.1408812999725342,"49":2.2439637184143066,"50":-0.5427638292312622,"51":1.0575270652770996,"52":-0.06198796257376671,"53":0.7151846289634705,"54":0.46324408054351807,"55":0.9539307951927185,"56":1.138471245765686,"57":0.4504333436489105,"58":0.5231940746307373,"59":-1.1803585290908813,"60":-0.3176444470882416,"61":2.657146692276001,"62":0.7588985562324524,"63":0.8801230192184448,"64":0.7971274256706238,"65":0.7943530678749084,"66":-0.7728610634803772,"67":0.5567178726196289,"68":-0.5389134883880615,"69":0.7633699178695679,"70":1.7727322578430176,"71":-0.0911945328116417,"72":0.9802602529525757,"73":-2.216388463973999,"74":-0.27098581194877625,"75":0.49673032760620117,"76":0.37473148107528687,"77":0.808649480342865,"78":-0.8588489890098572,"79":0.08518284559249878,"80":-0.1341186910867691,"81":-0.04358206316828728,"82":-0.020672215148806572,"83":-0.6915104985237122,"84":-1.1393197774887085,"85":-1.070024013519287,"86":-1.9125672578811646,"87":-0.650075376033783,"88":-0.374701589345932,"89":0.367464542388916,"90":0.7052607536315918,"91":1.1671185493469238,"92":0.252551794052124,"93":0.20708173513412476,"94":1.2135188579559326,"95":-0.05208165571093559,"96":0.0070099541917443275,"97":1.5517486333847046,"98":-1.5139812231063843,"99":-0.4744703471660614,"100":0.019728578627109528,"101":-1.788084864616394,"102":-1.6615270376205444,"103":-0.27199655771255493,"104":0.8333892226219177,"105":-1.5434330701828003,"106":1.2237651348114014,"107":1.1193428039550781,"108":0.8831114768981934,"109":-1.3596323728561401,"110":0.46888965368270874,"111":-1.2566871643066406,"112":-0.013139156624674797,"113":-1.9298259019851685,"114":-0.18538449704647064,"115":-1.0804332494735718,"116":-0.45647063851356506,"117":-0.8371685147285461,"118":0.25474172830581665,"119":0.2193748503923416,"120":-0.4283677637577057,"121":-1.1096677780151367,"122":0.3486875593662262,"123":-0.36739277839660645,"124":-1.3513319492340088,"125":-0.9858918786048889,"126":-0.044988181442022324,"127":-0.766447901725769,"128":-0.5821374654769897,"129":-0.8399401903152466,"130":-2.0366716384887695,"131":0.4397927224636078,"132":-0.6992931365966797,"133":2.1304779052734375,"134":1.2920234203338623,"135":-1.3414291143417358,"136":-0.3931451439857483,"137":-1.1084686517715454,"138":0.2671613097190857,"139":-0.4051504135131836,"140":0.8938020467758179,"141":0.362173855304718,"142":2.9309346675872803,"143":-1.291001796722412,"144":-0.6619125604629517,"145":0.4598028361797333,"146":-1.1273502111434937,"147":1.3124068975448608,"148":-3.151984930038452,"149":1.3188754320144653,"150":-2.1888790130615234,"151":0.7859842777252197,"152":0.268180787563324,"153":2.4709067344665527,"154":0.7797871828079224,"155":0.6293646693229675,"156":0.11268410831689835,"157":-0.5889443755149841,"158":-0.3562803566455841,"159":-0.16256389021873474,"160":0.7772068381309509,"161":0.9783046841621399,"162":0.1778828352689743,"163":-0.504761278629303,"164":-0.35914450883865356,"165":1.9798321723937988,"166":0.4124826192855835,"167":0.7042158246040344,"168":0.002664081519469619,"169":-0.6184085011482239,"170":-1.0714198350906372,"171":-2.379089593887329,"172":-1.5769548416137695,"173":-0.4509021043777466,"174":-0.9590497016906738,"175":-1.1732808351516724,"176":0.26844412088394165,"177":-2.432950973510742,"178":1.7618650197982788,"179":-1.1038366556167603,"180":1.1700611114501953,"181":-0.3614153563976288,"182":1.0602906942367554,"183":-1.1268293857574463,"184":-0.07555805891752243,"185":-0.3240819275379181,"186":-0.01917329430580139,"187":-1.1227394342422485,"188":-1.244821548461914,"189":0.5079512596130371,"190":0.8421986103057861,"191":1.4270144701004028,"192":3.0627880096435547,"193":-0.12286193668842316,"194":-0.7682758569717407,"195":0.3504173755645752,"196":-0.29044613242149353,"197":-0.6661987900733948,"198":-1.1284985542297363,"199":1.8009799718856812}},"cellActivationHidden":{"rows":20,"columns":20,"weights":{"0":0.9556030631065369,"1":0.2730797827243805,"2":-0.6835906505584717,"3":-1.162651538848877,"4":0.22821637988090515,"5":0.319200724363327,"6":-1.215729832649231,"7":0.17054881155490875,"8":-0.9770520925521851,"9":-0.21032507717609406,"10":-0.05928507819771767,"11":0.5111010670661926,"12":-0.6002654433250427,"13":-0.02370099537074566,"14":-0.4004976451396942,"15":-0.18801195919513702,"16":-0.031718652695417404,"17":-1.295601487159729,"18":0.4760569632053375,"19":0.718290388584137,"20":0.16486814618110657,"21":0.5018246173858643,"22":0.5530616044998169,"23":0.07238171249628067,"24":-0.05090324580669403,"25":0.5298954248428345,"26":-1.3948079347610474,"27":-0.16710279881954193,"28":-0.7947706580162048,"29":-0.679043173789978,"30":1.1912623643875122,"31":1.8223044872283936,"32":-0.46878841519355774,"33":-0.16248483955860138,"34":-0.18020612001419067,"35":0.38163456320762634,"36":0.21245692670345306,"37":-0.3981778621673584,"38":1.2147691249847412,"39":-1.9621353149414062,"40":-1.0396727323532104,"41":1.5116746425628662,"42":-0.4826611280441284,"43":-0.3793048858642578,"44":-0.413417786359787,"45":0.5598030686378479,"46":-2.0171937942504883,"47":-2.3320882320404053,"48":-0.038064178079366684,"49":-1.2646803855895996,"50":-1.1379872560501099,"51":0.7585038542747498,"52":0.21827314794063568,"53":-0.18862104415893555,"54":-1.2456961870193481,"55":2.665235996246338,"56":-0.056679703295230865,"57":0.12724749743938446,"58":0.8125262260437012,"59":-1.9289292097091675,"60":0.5687121152877808,"61":0.4236418902873993,"62":-0.12609978020191193,"63":-0.5661011338233948,"64":1.1947892904281616,"65":1.2735166549682617,"66":0.13713839650154114,"67":1.033272624015808,"68":0.7337161898612976,"69":-0.191300630569458,"70":-1.2575690746307373,"71":-0.5511729717254639,"72":-0.6111786365509033,"73":-1.2337406873703003,"74":0.6663409471511841,"75":-0.2597946524620056,"76":0.9652000665664673,"77":0.9095690846443176,"78":-0.10185864567756653,"79":-0.3298432528972626,"80":-0.4160255789756775,"81":0.5567365288734436,"82":0.16497601568698883,"83":-0.38586902618408203,"84":0.6758065223693848,"85":1.3245329856872559,"86":-0.6489230990409851,"87":0.3728727400302887,"88":-0.5794495344161987,"89":-0.5613313317298889,"90":0.7056633830070496,"91":-0.44178006052970886,"92":-0.1136564388871193,"93":0.10031620413064957,"94":0.058289866894483566,"95":-0.031198250129818916,"96":0.0523238480091095,"97":-0.034576285630464554,"98":-0.4438849091529846,"99":-0.44120514392852783,"100":-0.3363554775714874,"101":0.5807199478149414,"102":-0.16344819962978363,"103":0.15761631727218628,"104":1.0779451131820679,"105":-1.033016324043274,"106":-1.3472689390182495,"107":-0.49283865094184875,"108":0.8368373513221741,"109":-0.8062940835952759,"110":0.5382499098777771,"111":0.3878153860569,"112":-1.2791635990142822,"113":-0.3367353677749634,"114":0.39111170172691345,"115":0.41016286611557007,"116":1.4980881214141846,"117":0.16825395822525024,"118":-0.2949497401714325,"119":-1.119177222251892,"120":-0.11601689457893372,"121":0.4743604362010956,"122":0.7240644097328186,"123":-0.7968097925186157,"124":-0.062391117215156555,"125":0.5313754081726074,"126":-1.8229695558547974,"127":0.8567270040512085,"128":-0.1216367557644844,"129":-1.122737169265747,"130":0.4119667410850525,"131":0.4788972735404968,"132":0.671971321105957,"133":0.1824861615896225,"134":0.1312931329011917,"135":-0.2914881408214569,"136":-0.48157742619514465,"137":-0.27685168385505676,"138":2.3102848529815674,"139":-0.5215332508087158,"140":0.2548483908176422,"141":0.29512929916381836,"142":1.1645506620407104,"143":-0.3200898766517639,"144":-0.5719887614250183,"145":-0.6567061543464661,"146":-0.06569570302963257,"147":0.12518729269504547,"148":-0.20608890056610107,"149":-0.09564550966024399,"150":-0.15256080031394958,"151":0.24496667087078094,"152":-0.22387796640396118,"153":1.103926658630371,"154":-0.7984541058540344,"155":-0.0932510644197464,"156":-0.3270553648471832,"157":-0.34362417459487915,"158":0.29195189476013184,"159":-0.3439732491970062,"160":-0.3517025113105774,"161":-0.8099173307418823,"162":-0.5087710022926331,"163":-1.2133800983428955,"164":1.2709072828292847,"165":-0.7396568059921265,"166":0.737934410572052,"167":1.8702406883239746,"168":2.1049182415008545,"169":0.34422776103019714,"170":-1.759273648262024,"171":-0.30610692501068115,"172":0.7725163102149963,"173":-0.6630828976631165,"174":1.2100069522857666,"175":-1.7913060188293457,"176":1.0303449630737305,"177":0.8382272124290466,"178":-0.05196784809231758,"179":1.9995149374008179,"180":1.4455746412277222,"181":0.6303548812866211,"182":1.2723374366760254,"183":0.884005069732666,"184":0.6561002135276794,"185":0.5326893925666809,"186":1.0929899215698242,"187":1.2563321590423584,"188":-0.6044532060623169,"189":0.290505051612854,"190":0.22394567728042603,"191":0.3269011676311493,"192":-2.17889404296875,"193":-1.6418224573135376,"194":0.4076175391674042,"195":-0.0418560691177845,"196":1.1468135118484497,"197":-1.6196210384368896,"198":-0.8571419715881348,"199":0.826306939125061,"200":-0.3926960229873657,"201":-0.7351791858673096,"202":-1.193088412284851,"203":0.1585816740989685,"204":-0.6474909782409668,"205":-0.27303871512413025,"206":0.8576275110244751,"207":-0.7660111784934998,"208":0.37606969475746155,"209":0.20957931876182556,"210":-0.042796775698661804,"211":0.44761043787002563,"212":-1.834129810333252,"213":-0.2293837070465088,"214":-0.9194387197494507,"215":-0.015784865245223045,"216":0.48436206579208374,"217":-0.1609833836555481,"218":-0.8921289443969727,"219":0.5614646673202515,"220":0.5586584210395813,"221":-0.4082808792591095,"222":0.44176724553108215,"223":-0.9483702778816223,"224":-0.8846584558486938,"225":0.9827176928520203,"226":-0.2836231291294098,"227":-0.819881021976471,"228":-1.1200352907180786,"229":-0.5809627771377563,"230":-0.5969920754432678,"231":1.454817533493042,"232":-0.6045770645141602,"233":0.427178293466568,"234":-0.5545325875282288,"235":1.035789132118225,"236":-0.6750575304031372,"237":-0.7740175127983093,"238":0.6338821053504944,"239":-0.10374151170253754,"240":1.2022898197174072,"241":-1.1066306829452515,"242":0.34527498483657837,"243":0.5670771598815918,"244":-1.3813865184783936,"245":0.6288352012634277,"246":-0.8276840448379517,"247":-1.3729023933410645,"248":0.49316611886024475,"249":-0.5899888873100281,"250":1.0883549451828003,"251":0.4131941497325897,"252":-0.43078187108039856,"253":1.2571896314620972,"254":-0.48151353001594543,"255":2.4320313930511475,"256":0.793731153011322,"257":0.6933466792106628,"258":-0.14171110093593597,"259":-2.28788423538208,"260":-0.018405074253678322,"261":-0.8680235743522644,"262":-0.9602953195571899,"263":0.57835853099823,"264":-1.3945820331573486,"265":-0.9517649412155151,"266":1.3510172367095947,"267":-0.5438023805618286,"268":-0.3092813193798065,"269":0.2950575351715088,"270":0.04411391168832779,"271":-0.11981045454740524,"272":0.5855605602264404,"273":0.04063668102025986,"274":-0.8384398221969604,"275":0.12357562780380249,"276":0.016547350212931633,"277":-0.09133705496788025,"278":-0.12690994143486023,"279":0.5265855193138123,"280":0.5137947201728821,"281":-0.5374225974082947,"282":1.023410677909851,"283":-0.5125671029090881,"284":-0.9495496153831482,"285":0.09453028440475464,"286":-1.825567603111267,"287":-0.1153515875339508,"288":0.2256869673728943,"289":-0.6509238481521606,"290":1.244658350944519,"291":-0.35964855551719666,"292":-0.47432807087898254,"293":-0.30307069420814514,"294":-0.902423083782196,"295":-0.18501412868499756,"296":1.8027684688568115,"297":0.6118359565734863,"298":0.3914613425731659,"299":-1.2514731884002686,"300":-2.425095319747925,"301":-0.7810611128807068,"302":1.3542046546936035,"303":-0.1494964063167572,"304":0.4820300042629242,"305":0.23676727712154388,"306":0.5268223285675049,"307":-0.00557081401348114,"308":0.977685272693634,"309":-0.2254868596792221,"310":-1.0018185377120972,"311":0.8957348465919495,"312":1.8384602069854736,"313":1.0614427328109741,"314":0.7164474129676819,"315":0.4861050546169281,"316":-1.577914834022522,"317":-0.021023115143179893,"318":-1.2790167331695557,"319":0.09450629353523254,"320":-0.9053221344947815,"321":0.44380563497543335,"322":0.6455826163291931,"323":-0.7970528602600098,"324":1.746561884880066,"325":-0.637269139289856,"326":-1.5931951999664307,"327":0.03841060772538185,"328":-0.06256373226642609,"329":-1.5431612730026245,"330":-0.7494679689407349,"331":0.7791452407836914,"332":-1.0813541412353516,"333":-1.3580873012542725,"334":0.5180232524871826,"335":-0.48111891746520996,"336":-0.5711809396743774,"337":-0.25950637459754944,"338":0.056954268366098404,"339":1.1403086185455322,"340":-0.34841659665107727,"341":1.5344783067703247,"342":-1.4571914672851562,"343":0.7395194172859192,"344":-0.36963316798210144,"345":-0.31611189246177673,"346":-1.193729281425476,"347":-0.881463348865509,"348":-0.9517509341239929,"349":-1.5527631044387817,"350":1.2422782182693481,"351":1.30010986328125,"352":-1.793921709060669,"353":-1.2934507131576538,"354":1.9570062160491943,"355":1.8584049940109253,"356":1.1151460409164429,"357":-0.23140829801559448,"358":1.7983033657073975,"359":-0.32566508650779724,"360":0.38949763774871826,"361":-0.7888419032096863,"362":-0.7942041754722595,"363":-1.3836910724639893,"364":-0.5393463969230652,"365":0.8647564649581909,"366":0.022627240046858788,"367":-1.1121286153793335,"368":0.687529981136322,"369":-1.1641379594802856,"370":-1.3751475811004639,"371":0.4122651219367981,"372":1.23087477684021,"373":0.1418260931968689,"374":0.5165491104125977,"375":0.9734203219413757,"376":-0.6968705654144287,"377":1.8509283065795898,"378":1.1583998203277588,"379":-1.6421692371368408,"380":0.21425947546958923,"381":-0.10930464416742325,"382":0.8283145427703857,"383":-0.12563647329807281,"384":-0.3136577904224396,"385":-0.5969273447990417,"386":-1.2591253519058228,"387":0.20067664980888367,"388":-0.029180683195590973,"389":-1.5959851741790771,"390":0.7412940263748169,"391":0.38714492321014404,"392":0.7115822434425354,"393":-0.47508952021598816,"394":-0.17221345007419586,"395":0.2434709668159485,"396":-0.604315996170044,"397":0.06033586710691452,"398":1.0955899953842163,"399":-0.7493013739585876}},"cellActivationBias":{"rows":20,"columns":1,"weights":{"0":-0.15419334173202515,"1":0.18632939457893372,"2":3.829423427581787,"3":0.23422850668430328,"4":0.38310232758522034,"5":1.9383656978607178,"6":0.3837742507457733,"7":0.8093653917312622,"8":0.018599333241581917,"9":-0.25178131461143494,"10":-1.272837519645691,"11":0.0995580181479454,"12":0.08356726914644241,"13":-0.6111720204353333,"14":1.9854031801223755,"15":-0.8727357983589172,"16":0.607376754283905,"17":2.2734124660491943,"18":-0.7400445938110352,"19":0.24446193873882294}}},{"inputMatrix":{"rows":20,"columns":20,"weights":{"0":-0.21768780052661896,"1":0.20424489676952362,"2":-1.9142743349075317,"3":0.8134098649024963,"4":0.08155522495508194,"5":-2.3137168884277344,"6":2.058136463165283,"7":0.8516963124275208,"8":1.2756589651107788,"9":0.6930400729179382,"10":-1.5396665334701538,"11":-3.265481472015381,"12":-0.41627633571624756,"13":2.2661361694335938,"14":-2.2442188262939453,"15":-1.2480226755142212,"16":0.6872935891151428,"17":-0.7380983233451843,"18":-0.9667460918426514,"19":2.0265464782714844,"20":-1.2544711828231812,"21":1.0358967781066895,"22":-0.3592379093170166,"23":0.7799608111381531,"24":-0.4656173288822174,"25":-2.603468418121338,"26":-0.25451311469078064,"27":-1.138984203338623,"28":0.5425882339477539,"29":0.7653941512107849,"30":2.0175588130950928,"31":-1.3624718189239502,"32":-0.7617488503456116,"33":2.7657999992370605,"34":-3.661400318145752,"35":2.6789677143096924,"36":-0.057986535131931305,"37":-1.3510384559631348,"38":0.6977000832557678,"39":-2.329252243041992,"40":-1.2212228775024414,"41":0.18795479834079742,"42":-3.0065343379974365,"43":-0.17477117478847504,"44":-1.1295897960662842,"45":-1.9625424146652222,"46":4.2727508544921875,"47":0.012162802740931511,"48":0.8677888512611389,"49":0.28620317578315735,"50":-1.3964266777038574,"51":-0.7423897981643677,"52":-0.15053142607212067,"53":2.9448904991149902,"54":-1.3381590843200684,"55":1.7661570310592651,"56":-1.1721394062042236,"57":-1.7034120559692383,"58":1.312059998512268,"59":-0.39346548914909363,"60":3.849966526031494,"61":-0.8800131678581238,"62":-4.480136871337891,"63":-1.5643256902694702,"64":-1.4737780094146729,"65":-0.844965398311615,"66":-0.0226280614733696,"67":0.002487640595063567,"68":0.5046692490577698,"69":-0.9360429048538208,"70":-1.7171108722686768,"71":-1.1307377815246582,"72":-1.154603123664856,"73":1.368317723274231,"74":-2.479069948196411,"75":1.062076449394226,"76":-0.8309874534606934,"77":-1.2550054788589478,"78":1.3766076564788818,"79":1.278950810432434,"80":1.8088856935501099,"81":-1.290854811668396,"82":-0.5410456657409668,"83":-0.9901835322380066,"84":-1.068077564239502,"85":1.9658007621765137,"86":0.9542854428291321,"87":-0.7427816987037659,"88":0.3258911967277527,"89":-0.14160889387130737,"90":0.9186986684799194,"91":-1.1442816257476807,"92":0.07215837389230728,"93":2.6076436042785645,"94":-2.6513702869415283,"95":2.940955638885498,"96":0.06795568019151688,"97":-2.8344686031341553,"98":-0.6502337455749512,"99":0.6226913332939148,"100":-1.5062202215194702,"101":2.98884916305542,"102":-1.1784279346466064,"103":1.3947824239730835,"104":1.0791285037994385,"105":-0.4223320186138153,"106":-1.9072309732437134,"107":2.510939359664917,"108":0.5351075530052185,"109":-1.1476856470108032,"110":1.729490041732788,"111":-0.7734901309013367,"112":0.777104914188385,"113":-2.2740249633789062,"114":-1.1715092658996582,"115":-0.7946624159812927,"116":-1.454021692276001,"117":-0.19421373307704926,"118":1.8897271156311035,"119":-1.6500186920166016,"120":2.8704099655151367,"121":-1.9114820957183838,"122":-1.0839656591415405,"123":-3.136881113052368,"124":-3.228423833847046,"125":0.849374532699585,"126":-0.9961348176002502,"127":-1.2034934759140015,"128":-0.9501186609268188,"129":0.8657532930374146,"130":0.6940064430236816,"131":-0.9823365211486816,"132":-0.7737086415290833,"133":0.8226444125175476,"134":-3.8541204929351807,"135":1.134067416191101,"136":-0.4369302988052368,"137":0.8857139348983765,"138":1.9286423921585083,"139":-2.4141018390655518,"140":1.1340957880020142,"141":1.130362629890442,"142":0.2551894187927246,"143":-1.7173216342926025,"144":0.1649375706911087,"145":-0.9625833630561829,"146":2.8778178691864014,"147":0.4675820767879486,"148":-2.7023746967315674,"149":2.5741446018218994,"150":-1.2872661352157593,"151":0.8141369223594666,"152":-0.3903926610946655,"153":-0.19067367911338806,"154":-0.8927527070045471,"155":0.6783102750778198,"156":0.5141523480415344,"157":-0.9985421895980835,"158":0.4569001793861389,"159":3.0144283771514893,"160":0.39466604590415955,"161":-0.6787430047988892,"162":-1.351145625114441,"163":-0.6356107592582703,"164":0.046727582812309265,"165":0.4847710430622101,"166":-0.04035601764917374,"167":-1.1091945171356201,"168":-1.8295458555221558,"169":-0.2825666069984436,"170":0.4964773952960968,"171":1.1303951740264893,"172":-1.0493742227554321,"173":0.172185018658638,"174":-1.0967286825180054,"175":1.049587607383728,"176":-0.010936523787677288,"177":-2.1382036209106445,"178":1.496363639831543,"179":-0.5933887362480164,"180":0.2630906403064728,"181":-0.7696295976638794,"182":-3.6692044734954834,"183":2.092473268508911,"184":0.054814428091049194,"185":-1.8167544603347778,"186":1.8853638172149658,"187":-0.6363964080810547,"188":-0.2314862757921219,"189":1.9846266508102417,"190":0.30009740591049194,"191":-1.4941504001617432,"192":-1.7790606021881104,"193":0.7326396107673645,"194":-2.198955535888672,"195":0.12641772627830505,"196":1.1936861276626587,"197":-2.4346868991851807,"198":0.013072093017399311,"199":-0.2725840210914612,"200":-1.0768961906433105,"201":2.128563165664673,"202":-0.8149093389511108,"203":-1.9934052228927612,"204":0.8764685392379761,"205":0.45868268609046936,"206":-4.419541835784912,"207":2.077505350112915,"208":-1.0113914012908936,"209":0.08338408917188644,"210":3.871520519256592,"211":-0.045488785952329636,"212":1.2250957489013672,"213":-0.3450250029563904,"214":-2.0221667289733887,"215":-0.8409058451652527,"216":-2.7869527339935303,"217":1.1755692958831787,"218":1.7380520105361938,"219":-1.245449423789978,"220":-2.374624729156494,"221":2.7951672077178955,"222":-3.2042288780212402,"223":3.3835513591766357,"224":2.2696125507354736,"225":-1.5416449308395386,"226":3.0978710651397705,"227":1.3754178285598755,"228":3.152217388153076,"229":3.3618807792663574,"230":-1.2863900661468506,"231":-0.7733101844787598,"232":0.6356938481330872,"233":-0.08069074898958206,"234":-1.5251572132110596,"235":-1.4688981771469116,"236":0.39293456077575684,"237":-1.2733656167984009,"238":0.1101275384426117,"239":1.2123304605484009,"240":1.8143789768218994,"241":-0.4306550621986389,"242":-4.016467571258545,"243":0.5201276540756226,"244":0.040490567684173584,"245":0.14118662476539612,"246":2.279883861541748,"247":1.3531574010849,"248":0.11181533336639404,"249":3.176558494567871,"250":0.013062137179076672,"251":-0.9607417583465576,"252":-0.8335157036781311,"253":-0.003965118434280157,"254":0.03269762918353081,"255":-0.5432717800140381,"256":0.5896159410476685,"257":-1.0627799034118652,"258":-0.10457847267389297,"259":0.4414716064929962,"260":-0.3130374252796173,"261":2.0138485431671143,"262":-0.1943877786397934,"263":0.5864272713661194,"264":-2.6378023624420166,"265":-1.86495840549469,"266":2.2952568531036377,"267":-1.4166029691696167,"268":0.6149871945381165,"269":1.1310958862304688,"270":0.14712245762348175,"271":0.48030728101730347,"272":2.582590103149414,"273":0.5188977718353271,"274":-1.0886579751968384,"275":1.45929753780365,"276":-2.343127489089966,"277":2.057403802871704,"278":1.4298988580703735,"279":-1.7940469980239868,"280":3.916419506072998,"281":-1.0985890626907349,"282":-1.5961582660675049,"283":-1.2193409204483032,"284":-2.792048692703247,"285":0.43823912739753723,"286":-1.2094016075134277,"287":-2.005178451538086,"288":-0.26745811104774475,"289":-0.7944536209106445,"290":1.6096186637878418,"291":0.8229788541793823,"292":0.2681552469730377,"293":1.0555766820907593,"294":-2.599461555480957,"295":0.4432861804962158,"296":-1.516532063484192,"297":0.6820893883705139,"298":1.1906424760818481,"299":-1.9099849462509155,"300":-1.0622832775115967,"301":-1.598952293395996,"302":-1.8168725967407227,"303":0.33293986320495605,"304":-1.6856824159622192,"305":-1.4787566661834717,"306":1.1688928604125977,"307":-1.671572208404541,"308":1.4685295820236206,"309":1.2978787422180176,"310":-0.5900000929832458,"311":-1.9006617069244385,"312":-1.5208816528320312,"313":2.2408952713012695,"314":-2.8952829837799072,"315":1.330818772315979,"316":-2.274664878845215,"317":0.7466220259666443,"318":0.7854045033454895,"319":-0.6634595394134521,"320":0.1881822645664215,"321":-0.36330363154411316,"322":-2.3349199295043945,"323":-0.7619516849517822,"324":-0.05063654109835625,"325":-0.04123380780220032,"326":-0.7658175826072693,"327":-1.2559242248535156,"328":-1.0636605024337769,"329":-0.5928743481636047,"330":-1.2454817295074463,"331":1.9796260595321655,"332":-0.9997692704200745,"333":-0.229373961687088,"334":-1.5707401037216187,"335":3.312516450881958,"336":0.29443949460983276,"337":-1.1665369272232056,"338":1.1273735761642456,"339":0.4161444902420044,"340":-2.145921230316162,"341":1.1267708539962769,"342":-2.0353760719299316,"343":-3.118635416030884,"344":-0.04723323881626129,"345":-0.3151616156101227,"346":2.329498529434204,"347":-0.5608392357826233,"348":-0.050520822405815125,"349":-0.8625765442848206,"350":-1.4990880489349365,"351":-1.6611427068710327,"352":3.5281667709350586,"353":0.003825673833489418,"354":-0.5219897627830505,"355":-0.3406820297241211,"356":-2.8198344707489014,"357":-0.6670659184455872,"358":0.14490582048892975,"359":1.6688481569290161,"360":-6.047567367553711,"361":-1.066377878189087,"362":-1.5670561790466309,"363":1.2121351957321167,"364":3.2011325359344482,"365":-1.263982892036438,"366":0.3109196126461029,"367":1.6937617063522339,"368":2.2654478549957275,"369":0.4439597725868225,"370":2.6417999267578125,"371":-1.0969736576080322,"372":-0.28606969118118286,"373":-2.8820621967315674,"374":-0.5161421298980713,"375":0.6202865242958069,"376":-2.180530071258545,"377":-1.2654105424880981,"378":-0.6817581057548523,"379":-2.7225558757781982,"380":-0.32410645484924316,"381":-0.718724250793457,"382":-1.3735579252243042,"383":1.8280055522918701,"384":-0.2667043209075928,"385":-0.6839713454246521,"386":3.6204962730407715,"387":-0.28461915254592896,"388":3.105846643447876,"389":0.3497522473335266,"390":-1.123613715171814,"391":-0.9876308441162109,"392":-0.8200260400772095,"393":1.2376668453216553,"394":-0.5405924916267395,"395":-1.0162585973739624,"396":0.6108085513114929,"397":0.5146241188049316,"398":1.061559796333313,"399":3.7389767169952393}},"inputHidden":{"rows":20,"columns":20,"weights":{"0":1.0029994249343872,"1":-0.11827684193849564,"2":0.9208166599273682,"3":-0.6479969024658203,"4":-1.713166356086731,"5":-0.8018609881401062,"6":0.5092015862464905,"7":3.3340985774993896,"8":-0.04388915002346039,"9":-2.382279396057129,"10":0.79541015625,"11":0.3891603350639343,"12":-0.8312772512435913,"13":0.2592959702014923,"14":1.6151450872421265,"15":1.8523292541503906,"16":1.3942843675613403,"17":0.7631558775901794,"18":-0.737808108329773,"19":-2.037862539291382,"20":-0.596473753452301,"21":0.5905287861824036,"22":0.06389741599559784,"23":-3.8390371799468994,"24":0.04159354791045189,"25":-0.7246202826499939,"26":2.2932047843933105,"27":2.285446882247925,"28":-2.043774127960205,"29":-0.2752355635166168,"30":0.2242456078529358,"31":-1.2800849676132202,"32":0.3011707663536072,"33":-0.7269065380096436,"34":2.3039560317993164,"35":0.5517396330833435,"36":-3.9848337173461914,"37":0.6425737738609314,"38":-1.4893810749053955,"39":-1.0282325744628906,"40":-0.4630768597126007,"41":0.5097326040267944,"42":-0.8027538657188416,"43":-0.7597290277481079,"44":-0.3710271418094635,"45":0.10161922127008438,"46":1.484104871749878,"47":-1.024212121963501,"48":0.9927458167076111,"49":-1.2124146223068237,"50":-1.7249490022659302,"51":0.7050077319145203,"52":-0.21590034663677216,"53":-1.8155537843704224,"54":-0.30827757716178894,"55":-0.12948182225227356,"56":0.5944837927818298,"57":-1.7868363857269287,"58":-1.319465160369873,"59":1.9754362106323242,"60":-0.37004590034484863,"61":1.108083963394165,"62":1.0901730060577393,"63":-1.2903423309326172,"64":-2.069164514541626,"65":-1.985426425933838,"66":2.6945202350616455,"67":-0.4710400104522705,"68":0.4966173768043518,"69":-0.3810223340988159,"70":-1.1887589693069458,"71":-0.048675861209630966,"72":-1.4228209257125854,"73":1.332585334777832,"74":0.23581920564174652,"75":-0.1911017745733261,"76":-0.4769890308380127,"77":0.9864765405654907,"78":-0.8490850329399109,"79":-0.7060990333557129,"80":0.06554209440946579,"81":-2.583393096923828,"82":1.583182454109192,"83":-3.155230760574341,"84":1.925370216369629,"85":-1.5165483951568604,"86":-0.6862475275993347,"87":-1.504290223121643,"88":-2.395186185836792,"89":-0.07855510711669922,"90":-1.801740288734436,"91":-3.637342929840088,"92":1.225933313369751,"93":-2.039203643798828,"94":2.2342095375061035,"95":0.5607562065124512,"96":-0.18308508396148682,"97":-1.6099728345870972,"98":3.301762819290161,"99":-1.840049147605896,"100":-0.9834884405136108,"101":-2.3787262439727783,"102":-2.694640636444092,"103":-1.9866008758544922,"104":2.879150152206421,"105":3.7972419261932373,"106":-0.7637050151824951,"107":2.548866033554077,"108":-1.6388046741485596,"109":-1.023751974105835,"110":-0.41904205083847046,"111":2.901293992996216,"112":-0.15995782613754272,"113":-2.7311952114105225,"114":0.9365735054016113,"115":2.4910333156585693,"116":-0.5527052879333496,"117":-0.057116828858852386,"118":2.576585292816162,"119":0.7257425785064697,"120":0.6754755973815918,"121":-3.5397794246673584,"122":-1.5674569606781006,"123":-1.7913713455200195,"124":2.482764720916748,"125":2.128173351287842,"126":0.20374751091003418,"127":0.906572699546814,"128":0.1277725100517273,"129":-1.8095437288284302,"130":1.3936359882354736,"131":-1.3006333112716675,"132":0.9401406645774841,"133":1.8057994842529297,"134":2.420332670211792,"135":1.9925260543823242,"136":0.9058389663696289,"137":0.24871785938739777,"138":-1.213455319404602,"139":-1.4671456813812256,"140":-2.573819160461426,"141":-1.4750488996505737,"142":-0.7326564788818359,"143":-0.36373624205589294,"144":-1.1049833297729492,"145":1.0011476278305054,"146":2.851917028427124,"147":0.9890449047088623,"148":-0.44866329431533813,"149":-1.4006733894348145,"150":0.9650267958641052,"151":0.8584031462669373,"152":-0.3649123013019562,"153":-2.0160765647888184,"154":1.2364975214004517,"155":3.0531864166259766,"156":-1.6914432048797607,"157":-0.6502618789672852,"158":-0.8131661415100098,"159":0.9111301898956299,"160":0.07164816558361053,"161":0.8794954419136047,"162":2.075650215148926,"163":-0.8377159833908081,"164":-3.2181003093719482,"165":-0.5576529502868652,"166":1.1136971712112427,"167":0.15370506048202515,"168":1.0300990343093872,"169":0.0754975900053978,"170":0.1641175001859665,"171":2.018317461013794,"172":0.22031934559345245,"173":-0.35042551159858704,"174":0.9049425721168518,"175":-1.1197636127471924,"176":-0.10110025852918625,"177":-1.715720772743225,"178":-1.568680763244629,"179":0.2179732471704483,"180":-1.6621454954147339,"181":0.7347771525382996,"182":-0.5301432609558105,"183":-0.9920039772987366,"184":-0.25852170586586,"185":-1.675667643547058,"186":-0.37618252635002136,"187":0.05371836572885513,"188":-1.9858157634735107,"189":0.6565674543380737,"190":0.8976747989654541,"191":4.878334045410156,"192":2.809469699859619,"193":2.0591909885406494,"194":3.0146851539611816,"195":-0.4125247597694397,"196":-1.0214072465896606,"197":1.3373664617538452,"198":-1.7897518873214722,"199":1.547055959701538,"200":1.5659130811691284,"201":-1.3952034711837769,"202":-3.3154194355010986,"203":-2.2277727127075195,"204":1.888162612915039,"205":4.823033332824707,"206":-1.789271593093872,"207":0.4323345720767975,"208":-2.7920477390289307,"209":0.03032725118100643,"210":0.24907660484313965,"211":-0.12115603685379028,"212":-2.8744029998779297,"213":-0.07938244193792343,"214":4.060605049133301,"215":1.9930129051208496,"216":-4.123773574829102,"217":1.0185904502868652,"218":0.47878992557525635,"219":-2.9792447090148926,"220":0.9946006536483765,"221":0.4487289488315582,"222":1.0293809175491333,"223":2.27752423286438,"224":2.401284694671631,"225":-0.022458413615822792,"226":0.8614873290061951,"227":-2.131363868713379,"228":0.6186230182647705,"229":0.6446419358253479,"230":-0.3163928985595703,"231":3.2192111015319824,"232":-1.5759340524673462,"233":0.7058234810829163,"234":-1.5835494995117188,"235":-0.11496193706989288,"236":1.023882508277893,"237":-1.2835748195648193,"238":0.8968006372451782,"239":0.8271018266677856,"240":0.9143902063369751,"241":2.460137367248535,"242":1.6748424768447876,"243":-3.101443290710449,"244":-0.12703242897987366,"245":-1.2245792150497437,"246":-0.09847782552242279,"247":0.658137857913971,"248":0.6976243853569031,"249":0.12708257138729095,"250":-0.048177570104599,"251":-2.411318063735962,"252":2.4388070106506348,"253":0.4232282042503357,"254":2.0357630252838135,"255":-3.2426505088806152,"256":-0.13736070692539215,"257":-0.26267173886299133,"258":0.04769250378012657,"259":-2.171340227127075,"260":-2.4775984287261963,"261":-0.8317967653274536,"262":-1.7567245960235596,"263":1.5769503116607666,"264":-3.1413941383361816,"265":1.2839651107788086,"266":0.45566418766975403,"267":-3.899484634399414,"268":1.2903145551681519,"269":-0.594556987285614,"270":1.0516971349716187,"271":0.12752363085746765,"272":1.2866986989974976,"273":-0.5457137227058411,"274":-2.3230388164520264,"275":1.3289721012115479,"276":-0.07935632765293121,"277":0.7445508241653442,"278":0.029856616631150246,"279":2.667856454849243,"280":1.5479758977890015,"281":1.1925032138824463,"282":1.0432891845703125,"283":0.6193044781684875,"284":-0.47848060727119446,"285":-1.296871542930603,"286":1.0195860862731934,"287":-0.3113870918750763,"288":1.0375815629959106,"289":-0.3248365819454193,"290":0.9465197920799255,"291":-1.9696910381317139,"292":-0.06178884580731392,"293":1.1734366416931152,"294":0.7994956374168396,"295":-1.0204534530639648,"296":-0.12921616435050964,"297":1.2678874731063843,"298":-2.214961290359497,"299":0.6549731492996216,"300":-1.353105902671814,"301":-0.3182194232940674,"302":-0.422887921333313,"303":-3.513559579849243,"304":0.1565028429031372,"305":1.3448482751846313,"306":0.998161792755127,"307":-2.206644058227539,"308":-2.8752970695495605,"309":-0.42144379019737244,"310":0.5837528109550476,"311":-1.3815802335739136,"312":0.8134770393371582,"313":1.7824814319610596,"314":4.208397388458252,"315":-0.23096206784248352,"316":-2.5197744369506836,"317":0.8786942362785339,"318":-2.7838082313537598,"319":1.1923091411590576,"320":2.559715509414673,"321":0.834572970867157,"322":2.004889965057373,"323":-1.7664892673492432,"324":-4.5742669105529785,"325":-2.1367855072021484,"326":1.561975359916687,"327":-0.05106296390295029,"328":0.6997819542884827,"329":-0.564344584941864,"330":-0.7085341215133667,"331":-0.03152741864323616,"332":-0.7530386447906494,"333":0.6450573801994324,"334":1.0696306228637695,"335":-1.1607664823532104,"336":-0.14001886546611786,"337":-1.0676696300506592,"338":-1.2627631425857544,"339":0.32577264308929443,"340":1.2711992263793945,"341":-0.4558732211589813,"342":0.14305424690246582,"343":1.6065715551376343,"344":1.794414758682251,"345":1.4239108562469482,"346":-0.4846322238445282,"347":-0.08110620826482773,"348":-0.6525676250457764,"349":-0.6197231411933899,"350":-1.0869672298431396,"351":-2.8677890300750732,"352":1.510023832321167,"353":0.319210410118103,"354":-2.545884609222412,"355":0.17335166037082672,"356":-1.5422437191009521,"357":0.04930204525589943,"358":0.719392716884613,"359":-2.075270175933838,"360":2.221935272216797,"361":0.7234750986099243,"362":0.07405909895896912,"363":0.3927655816078186,"364":3.0285143852233887,"365":0.22253011167049408,"366":-1.6369901895523071,"367":0.6150835752487183,"368":-3.28488826751709,"369":1.1532124280929565,"370":-1.3526989221572876,"371":0.7471701502799988,"372":-1.7108745574951172,"373":-3.1363627910614014,"374":-1.703958511352539,"375":2.2315218448638916,"376":-3.9021501541137695,"377":-1.1180659532546997,"378":0.35132914781570435,"379":-0.3488036096096039,"380":-1.6227178573608398,"381":-0.6936011910438538,"382":-0.24727243185043335,"383":-0.8012205362319946,"384":0.8872275948524475,"385":-0.7476388216018677,"386":1.0919525623321533,"387":2.329024076461792,"388":-0.33214402198791504,"389":-1.8054732084274292,"390":-3.0730183124542236,"391":0.6575563549995422,"392":-2.8593790531158447,"393":0.6932538747787476,"394":0.9652595520019531,"395":0.9036871790885925,"396":1.523236632347107,"397":-0.7254924774169922,"398":1.2973676919937134,"399":-1.141985535621643}},"inputBias":{"rows":20,"columns":1,"weights":{"0":-3.792346239089966,"1":-0.7854619026184082,"2":-1.5445295572280884,"3":-2.57266902923584,"4":-2.2784481048583984,"5":-2.346113443374634,"6":-1.2086354494094849,"7":-1.0154954195022583,"8":-2.4735920429229736,"9":-2.1260809898376465,"10":-1.237068772315979,"11":-3.675774574279785,"12":-2.371826648712158,"13":-1.4844796657562256,"14":-1.61447012424469,"15":-1.1721831560134888,"16":-2.594130039215088,"17":-2.813697099685669,"18":-1.7941018342971802,"19":-2.965005397796631}},"forgetMatrix":{"rows":20,"columns":20,"weights":{"0":0.4342145323753357,"1":-1.2707523107528687,"2":0.7491408586502075,"3":-1.3815025091171265,"4":-1.0696932077407837,"5":1.208276629447937,"6":1.5782886743545532,"7":1.4861512184143066,"8":1.2863469123840332,"9":-0.12559808790683746,"10":-0.4852546751499176,"11":-0.0033486909233033657,"12":-1.467187762260437,"13":0.6799934506416321,"14":0.5780712366104126,"15":-1.746788740158081,"16":-0.714158296585083,"17":-0.00223763519898057,"18":1.2185980081558228,"19":0.6803392767906189,"20":-1.6355969905853271,"21":0.7202293276786804,"22":-2.1426842212677,"23":-1.1526325941085815,"24":1.9230053424835205,"25":-2.6865320205688477,"26":1.6406651735305786,"27":0.13090984523296356,"28":-0.1135241687297821,"29":-0.378767192363739,"30":0.21773719787597656,"31":0.15416447818279266,"32":-0.47247928380966187,"33":0.42953360080718994,"34":-0.11050402373075485,"35":1.0021748542785645,"36":-2.052298069000244,"37":-1.361330509185791,"38":0.6576662063598633,"39":0.7469600439071655,"40":-0.8734667301177979,"41":-0.19479088485240936,"42":0.5024483799934387,"43":1.8136855363845825,"44":0.7430394887924194,"45":-0.9870566129684448,"46":1.5289053916931152,"47":2.2175581455230713,"48":1.511727213859558,"49":2.276214361190796,"50":-2.714604377746582,"51":-1.3255869150161743,"52":-0.4889737367630005,"53":0.869859516620636,"54":-2.2421460151672363,"55":-1.2160433530807495,"56":-0.20012167096138,"57":0.952673077583313,"58":0.5932915806770325,"59":1.47309410572052,"60":2.848637819290161,"61":1.2786275148391724,"62":0.03207867592573166,"63":-0.7584511637687683,"64":0.12671954929828644,"65":1.0361677408218384,"66":-1.8288259506225586,"67":0.34284988045692444,"68":-1.4733028411865234,"69":-0.6667000651359558,"70":-0.47544750571250916,"71":0.5552767515182495,"72":-0.12089749425649643,"73":-0.9151661992073059,"74":0.740766167640686,"75":-1.2913416624069214,"76":0.1523572951555252,"77":0.8961013555526733,"78":1.2841224670410156,"79":-1.0550537109375,"80":1.0039163827896118,"81":-1.6562758684158325,"82":-1.18538236618042,"83":0.0393061600625515,"84":0.9995713233947754,"85":1.3458882570266724,"86":3.4381330013275146,"87":-0.5078683495521545,"88":-0.5405190587043762,"89":1.5157685279846191,"90":-0.4040832817554474,"91":-0.9844319820404053,"92":-0.8494179844856262,"93":0.9849720001220703,"94":0.37516456842422485,"95":0.42817097902297974,"96":-0.00656919926404953,"97":0.16455253958702087,"98":1.0147277116775513,"99":0.7903908491134644,"100":-1.7290637493133545,"101":-1.5604238510131836,"102":0.5399203896522522,"103":0.29142311215400696,"104":0.18623629212379456,"105":-0.866614580154419,"106":-1.1324816942214966,"107":1.1749485731124878,"108":-0.2184959352016449,"109":-2.0835235118865967,"110":-0.20640726387500763,"111":1.2781805992126465,"112":0.27450600266456604,"113":-1.2009620666503906,"114":0.8632155656814575,"115":-0.3787660002708435,"116":-1.8045722246170044,"117":-0.23706889152526855,"118":1.3635045289993286,"119":-0.39542362093925476,"120":-0.924393355846405,"121":-0.16779467463493347,"122":1.6936248540878296,"123":-1.1253976821899414,"124":-0.3082188367843628,"125":1.6098960638046265,"126":0.24834118783473969,"127":-0.6837172508239746,"128":-2.4603536128997803,"129":-1.510686993598938,"130":0.24909034371376038,"131":-0.45216482877731323,"132":1.607485294342041,"133":-1.1941035985946655,"134":-2.809448480606079,"135":-0.2996043860912323,"136":-3.694937229156494,"137":1.8402819633483887,"138":1.9659501314163208,"139":-2.648081064224243,"140":-3.141620635986328,"141":0.12422377616167068,"142":-1.2086939811706543,"143":-1.425236701965332,"144":-1.522166132926941,"145":-3.1943445205688477,"146":-0.29320815205574036,"147":-1.0372087955474854,"148":-1.763959288597107,"149":0.21679256856441498,"150":0.17751528322696686,"151":-0.282985121011734,"152":0.5669623017311096,"153":0.4333791732788086,"154":-1.8076133728027344,"155":1.4433594942092896,"156":-1.6522934436798096,"157":1.174956202507019,"158":0.46487289667129517,"159":-1.5515241622924805,"160":0.013368284329771996,"161":-0.011124419048428535,"162":1.15238618850708,"163":-1.194830060005188,"164":-1.223331093788147,"165":2.173678398132324,"166":-2.2031612396240234,"167":-0.12169180810451508,"168":-2.187958002090454,"169":-0.07472306489944458,"170":2.985273599624634,"171":-0.042676039040088654,"172":-0.046130888164043427,"173":0.5478013157844543,"174":-0.9384307265281677,"175":-0.6424505114555359,"176":-1.3920073509216309,"177":0.8244497179985046,"178":0.5224607586860657,"179":-3.318274974822998,"180":-1.5181525945663452,"181":-2.3090360164642334,"182":-0.006550586316734552,"183":-0.4703124165534973,"184":-0.3720967769622803,"185":0.016756460070610046,"186":-0.17652231454849243,"187":-3.592388391494751,"188":-1.781888484954834,"189":0.6029621362686157,"190":-0.050865113735198975,"191":0.4324057698249817,"192":-0.7420535087585449,"193":0.7981276512145996,"194":-0.8367539644241333,"195":3.346543788909912,"196":0.32524511218070984,"197":-0.5404008626937866,"198":-2.000521421432495,"199":0.27432510256767273,"200":-0.3303082585334778,"201":0.4431174397468567,"202":-0.1783684343099594,"203":-0.9874646067619324,"204":-0.4252893030643463,"205":-1.5395089387893677,"206":1.100508689880371,"207":0.4564397931098938,"208":-0.47626349329948425,"209":0.5726333856582642,"210":0.5268439054489136,"211":1.5026068687438965,"212":0.6335418820381165,"213":-2.4225387573242188,"214":0.7728271484375,"215":-2.4987170696258545,"216":-0.8925564885139465,"217":1.401341199874878,"218":1.0793185234069824,"219":1.2100434303283691,"220":1.135543942451477,"221":0.055014900863170624,"222":0.7633044719696045,"223":-2.328342914581299,"224":0.5238399505615234,"225":1.786823034286499,"226":-1.5647697448730469,"227":-1.84730064868927,"228":-1.1842178106307983,"229":-1.0543856620788574,"230":2.464331865310669,"231":-0.08074190467596054,"232":-0.6662392020225525,"233":-0.007662743795663118,"234":-0.6012094616889954,"235":2.4864280223846436,"236":0.19824784994125366,"237":-0.6013243794441223,"238":0.9777923226356506,"239":-2.5902042388916016,"240":0.3194587826728821,"241":0.6431683897972107,"242":-1.0053532123565674,"243":-0.8968570828437805,"244":1.1273819208145142,"245":0.10981257259845734,"246":0.9177675247192383,"247":1.0819478034973145,"248":-1.2323570251464844,"249":-0.34157782793045044,"250":-1.2602471113204956,"251":2.0979421138763428,"252":-0.8498114943504333,"253":-2.3967888355255127,"254":0.14297500252723694,"255":-1.5000667572021484,"256":-2.1923532485961914,"257":-0.7849892377853394,"258":0.04505769908428192,"259":1.107020378112793,"260":-1.9850927591323853,"261":0.18159425258636475,"262":-0.4517025351524353,"263":0.05573303624987602,"264":-0.00880875438451767,"265":0.16727003455162048,"266":0.06141948699951172,"267":-1.5078599452972412,"268":-0.10899694263935089,"269":-4.123593807220459,"270":1.538770079612732,"271":0.2200498729944229,"272":1.5859252214431763,"273":1.6277811527252197,"274":-3.6228935718536377,"275":2.4625444412231445,"276":-1.5751913785934448,"277":2.268824338912964,"278":1.8815803527832031,"279":-3.271174192428589,"280":2.1142826080322266,"281":1.4690333604812622,"282":-0.29188117384910583,"283":-1.0048916339874268,"284":-0.2969585955142975,"285":0.5071521997451782,"286":-1.5844420194625854,"287":1.4064111709594727,"288":-1.8151360750198364,"289":1.7810969352722168,"290":0.0015015089884400368,"291":0.23274604976177216,"292":0.11845293641090393,"293":-0.4753713607788086,"294":0.4280639886856079,"295":-0.7790297865867615,"296":0.5559045076370239,"297":0.5424918532371521,"298":1.5315355062484741,"299":0.4460892081260681,"300":-0.758377194404602,"301":0.004773629829287529,"302":1.0591199398040771,"303":1.3091679811477661,"304":-0.8262534737586975,"305":-1.8945114612579346,"306":-0.38468602299690247,"307":-1.2575888633728027,"308":1.719900369644165,"309":-0.739841103553772,"310":-0.5744662284851074,"311":0.43494918942451477,"312":-0.2651602029800415,"313":-0.7789279818534851,"314":-2.159680128097534,"315":2.0049569606781006,"316":-0.8744251132011414,"317":0.2938539385795593,"318":1.9787383079528809,"319":-0.6521268486976624,"320":0.7151467204093933,"321":1.7694810628890991,"322":-0.8758769035339355,"323":0.088257797062397,"324":0.8814153075218201,"325":1.7834103107452393,"326":-0.019352097064256668,"327":-0.13544327020645142,"328":-0.6639245748519897,"329":2.036736249923706,"330":1.1683043241500854,"331":0.247187539935112,"332":-0.7970579862594604,"333":-1.0141663551330566,"334":-0.37698566913604736,"335":-0.5429273247718811,"336":0.28622332215309143,"337":-1.125278353691101,"338":0.3417128622531891,"339":-0.8012977838516235,"340":1.0925065279006958,"341":2.2140841484069824,"342":-2.4824483394622803,"343":-1.2882297039031982,"344":0.7575826048851013,"345":1.511214256286621,"346":0.48611387610435486,"347":2.1052472591400146,"348":0.42146703600883484,"349":-1.520033597946167,"350":0.14127491414546967,"351":1.4692089557647705,"352":-0.4362872838973999,"353":-0.8019194006919861,"354":1.7507582902908325,"355":1.0291454792022705,"356":1.2188009023666382,"357":-0.23170150816440582,"358":-1.6528111696243286,"359":-0.002845607465133071,"360":-1.4047765731811523,"361":0.41039425134658813,"362":0.22539836168289185,"363":-0.20455878973007202,"364":3.18174409866333,"365":0.10025676339864731,"366":1.7291182279586792,"367":0.11433053761720657,"368":0.6295148730278015,"369":-0.10200828313827515,"370":-1.5503374338150024,"371":-1.292410969734192,"372":1.8019261360168457,"373":-0.08523081243038177,"374":3.2753145694732666,"375":-1.2050033807754517,"376":-1.1910203695297241,"377":-2.497781991958618,"378":0.030585763975977898,"379":4.1952128410339355,"380":-1.759606957435608,"381":0.1282709687948227,"382":3.7491745948791504,"383":2.4953463077545166,"384":0.9466112852096558,"385":1.0855128765106201,"386":-1.35062837600708,"387":2.074187994003296,"388":0.08958136290311813,"389":-1.003503441810608,"390":-0.722698450088501,"391":1.3101409673690796,"392":-0.9174978137016296,"393":-1.707313060760498,"394":1.430365800857544,"395":-1.1044628620147705,"396":0.10857444256544113,"397":0.13784454762935638,"398":1.333646535873413,"399":-3.1556079387664795}},"forgetHidden":{"rows":20,"columns":20,"weights":{"0":0.7216002345085144,"1":0.9160618782043457,"2":1.87208092212677,"3":-0.24629491567611694,"4":-0.8487125039100647,"5":-0.337746798992157,"6":1.6257445812225342,"7":1.0111899375915527,"8":0.28003937005996704,"9":-1.2926610708236694,"10":-1.1149578094482422,"11":-2.580036163330078,"12":0.21197758615016937,"13":-0.21361272037029266,"14":1.40091073513031,"15":-1.484607458114624,"16":1.3755173683166504,"17":0.23054693639278412,"18":0.20713813602924347,"19":-0.40584829449653625,"20":-0.9456851482391357,"21":-0.5861294269561768,"22":-1.2677593231201172,"23":-1.3347375392913818,"24":1.5276395082473755,"25":-0.977623462677002,"26":1.0055845975875854,"27":-1.318463683128357,"28":-2.0936737060546875,"29":1.0275602340698242,"30":0.5773265361785889,"31":-3.7686924934387207,"32":0.1402054727077484,"33":-1.1553250551223755,"34":1.1330446004867554,"35":-0.11903773993253708,"36":-2.014587879180908,"37":0.5784352421760559,"38":0.6104644536972046,"39":0.8862734436988831,"40":0.7799022197723389,"41":0.6378567218780518,"42":1.2511940002441406,"43":-2.4952375888824463,"44":-0.8138210773468018,"45":-0.6716938018798828,"46":1.6917481422424316,"47":-0.935666024684906,"48":-0.46684008836746216,"49":0.4456809163093567,"50":0.8580487966537476,"51":-0.8762481808662415,"52":-0.05615382641553879,"53":1.9785575866699219,"54":3.337629556655884,"55":-0.289118230342865,"56":-0.06658770143985748,"57":0.05275305360555649,"58":-0.7013654112815857,"59":0.1310161054134369,"60":-0.7091190218925476,"61":0.7635185122489929,"62":0.47543007135391235,"63":0.8347933292388916,"64":-3.1339566707611084,"65":-2.5526394844055176,"66":1.847497820854187,"67":2.0869603157043457,"68":0.1000693291425705,"69":-0.8394415974617004,"70":1.8873933553695679,"71":0.476560115814209,"72":-1.0419191122055054,"73":0.20610211789608002,"74":-0.17414455115795135,"75":-2.7028911113739014,"76":0.9640738368034363,"77":-0.7850321531295776,"78":-0.3496740162372589,"79":-0.30227115750312805,"80":-0.18214558064937592,"81":2.128732681274414,"82":1.8816806077957153,"83":-2.1098012924194336,"84":1.0661823749542236,"85":-3.3154237270355225,"86":1.892034888267517,"87":0.27106812596321106,"88":0.14758284389972687,"89":0.7995746731758118,"90":-0.6507411003112793,"91":0.685422956943512,"92":0.9411591291427612,"93":-0.01661542057991028,"94":1.3596150875091553,"95":-2.567898750305176,"96":-1.7770107984542847,"97":1.084633469581604,"98":1.6815203428268433,"99":-0.952765166759491,"100":0.13358649611473083,"101":1.9952412843704224,"102":0.5671745538711548,"103":-0.08941108733415604,"104":-1.6267048120498657,"105":0.2642342150211334,"106":-0.17776872217655182,"107":1.1531013250350952,"108":0.9150277376174927,"109":0.0008691932889632881,"110":0.36636367440223694,"111":-2.4122636318206787,"112":0.2840813994407654,"113":0.3515511155128479,"114":1.128827691078186,"115":-0.3074527084827423,"116":0.8211449980735779,"117":0.5492854714393616,